network unknown {
}
variable Age_Cat {
    type discrete [ 6 ] { 1.0, 2.0, 3.0, 4.0, 5.0, 6.0 };
    property weight = None ;
}
variable Arthritis {
    type discrete [ 3 ] { 1.0, 2.0, 999.0 };
    property weight = None ;
}
variable Asthma_Status {
    type discrete [ 4 ] { 1.0, 2.0, 3.0, 9.0 };
    property weight = None ;
}
variable BMI_Cat {
    type discrete [ 5 ] { 1.0, 2.0, 3.0, 4.0, 999.0 };
    property weight = None ;
}
variable Bronchitis {
    type discrete [ 4 ] { 1.0, 2.0, 7.0, 9.0 };
    property weight = None ;
}
variable Depression {
    type discrete [ 4 ] { 1.0, 2.0, 7.0, 9.0 };
    property weight = None ;
}
variable Diabetes {
    type discrete [ 5 ] { 1.0, 2.0, 7.0, 9.0, 999.0 };
    property weight = None ;
}
variable Education_Level {
    type discrete [ 5 ] { 1.0, 2.0, 3.0, 4.0, 9.0 };
    property weight = None ;
}
variable Flu_Shot {
    type discrete [ 4 ] { 1.0, 2.0, 9.0, 65.0 };
    property weight = None ;
}
variable Good_Health {
    type discrete [ 3 ] { 1.0, 2.0, 9.0 };
    property weight = None ;
}
variable HIV {
    type discrete [ 4 ] { 1.0, 2.0, 9.0, 999.0 };
    property weight = None ;
}
variable Health_Insurance {
    type discrete [ 3 ] { 1.0, 2.0, 9.0 };
    property weight = None ;
}
variable Heart_Disease {
    type discrete [ 2 ] { 0.0, 1.0 };
    property weight = None ;
}
variable Heavy_Drinker {
    type discrete [ 3 ] { 1.0, 2.0, 9.0 };
    property weight = None ;
}
variable High_Cholesterol {
    type discrete [ 4 ] { 1.0, 2.0, 9.0, 999.0 };
    property weight = None ;
}
variable Hypertension {
    type discrete [ 3 ] { 1.0, 2.0, 9.0 };
    property weight = None ;
}
variable Income_Level {
    type discrete [ 6 ] { 1.0, 2.0, 3.0, 4.0, 5.0, 9.0 };
    property weight = None ;
}
variable Kidney_Disease {
    type discrete [ 4 ] { 1.0, 2.0, 7.0, 9.0 };
    property weight = None ;
}
variable Marital_Status {
    type discrete [ 7 ] { 1.0, 2.0, 3.0, 4.0, 5.0, 6.0, 9.0 };
    property weight = None ;
}
variable Physical_Activity {
    type discrete [ 5 ] { 1.0, 2.0, 3.0, 4.0, 9.0 };
    property weight = None ;
}
variable Pneumonia_Vaccine {
    type discrete [ 4 ] { 1.0, 2.0, 9.0, 65.0 };
    property weight = None ;
}
variable Race {
    type discrete [ 6 ] { 1.0, 2.0, 3.0, 4.0, 5.0, 9.0 };
    property weight = None ;
}
variable SEX {
    type discrete [ 2 ] { 1.0, 2.0 };
    property weight = None ;
}
variable Seatbelt {
    type discrete [ 3 ] { 1.0, 2.0, 9.0 };
    property weight = None ;
}
variable Smoker_Status {
    type discrete [ 5 ] { 1.0, 2.0, 3.0, 4.0, 9.0 };
    property weight = None ;
}
variable Sodium {
    type discrete [ 5 ] { 1.0, 2.0, 7.0, 9.0, 999.0 };
    property weight = None ;
}
probability ( Age_Cat | Flu_Shot, HIV, SEX, Smoker_Status ) {
    ( 1.0, 1.0, 1.0, 1.0 ) 1.7475796022508825e-05, 1.7475796022508825e-05, 1.7475796022508825e-05, 1.7475796022508825e-05, 1.7475796022508825e-05, 0.9999126210198874;
    ( 1.0, 1.0, 1.0, 2.0 ) 3.381348481774531e-05, 3.381348481774531e-05, 3.381348481774531e-05, 3.381348481774531e-05, 3.381348481774531e-05, 0.9998309325759114;
    ( 1.0, 1.0, 1.0, 3.0 ) 2.372783227269923e-06, 2.372783227269923e-06, 2.372783227269923e-06, 2.372783227269923e-06, 2.372783227269923e-06, 0.9999881360838637;
    ( 1.0, 1.0, 1.0, 4.0 ) 3.5993233272144836e-06, 3.5993233272144836e-06, 3.5993233272144836e-06, 3.5993233272144836e-06, 3.5993233272144836e-06, 0.9999820033833638;
    ( 1.0, 1.0, 1.0, 9.0 ) 0.0002600104004160166, 0.0002600104004160166, 0.0002600104004160166, 0.0002600104004160166, 0.0002600104004160166, 0.9986999479979198;
    ( 1.0, 1.0, 2.0, 1.0 ) 2.254384778393976e-05, 2.254384778393976e-05, 2.254384778393976e-05, 2.254384778393976e-05, 2.254384778393976e-05, 0.9998872807610804;
    ( 1.0, 1.0, 2.0, 2.0 ) 4.03648986841043e-05, 4.03648986841043e-05, 4.03648986841043e-05, 4.03648986841043e-05, 4.03648986841043e-05, 0.9997981755065796;
    ( 1.0, 1.0, 2.0, 3.0 ) 3.479107956719897e-06, 3.479107956719897e-06, 3.479107956719897e-06, 3.479107956719897e-06, 3.479107956719897e-06, 0.9999826044602164;
    ( 1.0, 1.0, 2.0, 4.0 ) 2.634421349350615e-06, 2.634421349350615e-06, 2.634421349350615e-06, 2.634421349350615e-06, 2.634421349350615e-06, 0.9999868278932532;
    ( 1.0, 1.0, 2.0, 9.0 ) 0.00017940437746681017, 0.00017940437746681017, 0.00017940437746681017, 0.00017940437746681017, 0.00017940437746681017, 0.9991029781126659;
    ( 1.0, 2.0, 1.0, 1.0 ) 5.239607239041361e-06, 5.239607239041361e-06, 5.239607239041361e-06, 5.239607239041361e-06, 5.239607239041361e-06, 0.9999738019638048;
    ( 1.0, 2.0, 1.0, 2.0 ) 1.4628865677755346e-05, 1.4628865677755346e-05, 1.4628865677755346e-05, 1.4628865677755346e-05, 1.4628865677755346e-05, 0.9999268556716112;
    ( 1.0, 2.0, 1.0, 3.0 ) 4.6407545495637223e-07, 4.6407545495637223e-07, 4.6407545495637223e-07, 4.6407545495637223e-07, 4.6407545495637223e-07, 0.9999976796227252;
    ( 1.0, 2.0, 1.0, 4.0 ) 6.208503911978314e-07, 6.208503911978314e-07, 6.208503911978314e-07, 6.208503911978314e-07, 6.208503911978314e-07, 0.9999968957480441;
    ( 1.0, 2.0, 1.0, 9.0 ) 4.132572939912389e-05, 4.132572939912389e-05, 4.132572939912389e-05, 4.132572939912389e-05, 4.132572939912389e-05, 0.9997933713530044;
    ( 1.0, 2.0, 2.0, 1.0 ) 3.3258169869428425e-06, 3.3258169869428425e-06, 3.3258169869428425e-06, 3.3258169869428425e-06, 3.3258169869428425e-06, 0.9999833709150653;
    ( 1.0, 2.0, 2.0, 2.0 ) 7.037991075827316e-06, 7.037991075827316e-06, 7.037991075827316e-06, 7.037991075827316e-06, 7.037991075827316e-06, 0.9999648100446209;
    ( 1.0, 2.0, 2.0, 3.0 ) 4.171328125847301e-07, 4.171328125847301e-07, 4.171328125847301e-07, 4.171328125847301e-07, 4.171328125847301e-07, 0.9999979143359371;
    ( 1.0, 2.0, 2.0, 4.0 ) 2.4331148882786636e-07, 2.4331148882786636e-07, 2.4331148882786636e-07, 2.4331148882786636e-07, 2.4331148882786636e-07, 0.9999987834425558;
    ( 1.0, 2.0, 2.0, 9.0 ) 2.3778950872687495e-05, 2.3778950872687495e-05, 2.3778950872687495e-05, 2.3778950872687495e-05, 2.3778950872687495e-05, 0.9998811052456366;
    ( 1.0, 9.0, 1.0, 1.0 ) 7.437156031533541e-05, 7.437156031533541e-05, 7.437156031533541e-05, 7.437156031533541e-05, 7.437156031533541e-05, 0.9996281421984232;
    ( 1.0, 9.0, 1.0, 2.0 ) 0.0002261420171867933, 0.0002261420171867933, 0.0002261420171867933, 0.0002261420171867933, 0.0002261420171867933, 0.998869289914066;
    ( 1.0, 9.0, 1.0, 3.0 ) 7.037991075827316e-06, 7.037991075827316e-06, 7.037991075827316e-06, 7.037991075827316e-06, 7.037991075827316e-06, 0.9999648100446209;
    ( 1.0, 9.0, 1.0, 4.0 ) 1.1999904000767994e-05, 1.1999904000767994e-05, 1.1999904000767994e-05, 1.1999904000767994e-05, 1.1999904000767994e-05, 0.9999400004799961;
    ( 1.0, 9.0, 1.0, 9.0 ) 0.00028885037550548814, 0.00028885037550548814, 0.00028885037550548814, 0.00028885037550548814, 0.00028885037550548814, 0.9985557481224725;
    ( 1.0, 9.0, 2.0, 1.0 ) 8.134049129656742e-05, 8.134049129656742e-05, 8.134049129656742e-05, 8.134049129656742e-05, 8.134049129656742e-05, 0.9995932975435171;
    ( 1.0, 9.0, 2.0, 2.0 ) 0.00020807324178110693, 0.00020807324178110693, 0.00020807324178110693, 0.00020807324178110693, 0.00020807324178110693, 0.9989596337910944;
    ( 1.0, 9.0, 2.0, 3.0 ) 1.0292513225879495e-05, 1.0292513225879495e-05, 1.0292513225879495e-05, 1.0292513225879495e-05, 1.0292513225879495e-05, 0.9999485374338706;
    ( 1.0, 9.0, 2.0, 4.0 ) 6.651501243830732e-06, 6.651501243830732e-06, 6.651501243830732e-06, 6.651501243830732e-06, 6.651501243830732e-06, 0.9999667424937809;
    ( 1.0, 9.0, 2.0, 9.0 ) 0.00017940437746681017, 0.00017940437746681017, 0.00017940437746681017, 0.00017940437746681017, 0.00017940437746681017, 0.9991029781126659;
    ( 1.0, 999.0, 1.0, 1.0 ) 0.0008635578583765112, 0.0008635578583765112, 0.0008635578583765112, 0.0008635578583765112, 0.0008635578583765112, 0.9956822107081174;
    ( 1.0, 999.0, 1.0, 2.0 ) 0.0012919896640826872, 0.0012919896640826872, 0.0012919896640826872, 0.0012919896640826872, 0.0012919896640826872, 0.9935400516795865;
    ( 1.0, 999.0, 1.0, 3.0 ) 6.76132521974307e-05, 6.76132521974307e-05, 6.76132521974307e-05, 6.76132521974307e-05, 6.76132521974307e-05, 0.9996619337390128;
    ( 1.0, 999.0, 1.0, 4.0 ) 0.00013010668748373666, 0.00013010668748373666, 0.00013010668748373666, 0.00013010668748373666, 0.00013010668748373666, 0.9993494665625814;
    ( 1.0, 999.0, 1.0, 9.0 ) 0.0012919896640826872, 0.0012919896640826872, 0.0012919896640826872, 0.0012919896640826872, 0.0012919896640826872, 0.9935400516795865;
    ( 1.0, 999.0, 2.0, 1.0 ) 0.0004721435316336166, 0.0004721435316336166, 0.0004721435316336166, 0.0004721435316336166, 0.0004721435316336166, 0.997639282341832;
    ( 1.0, 999.0, 2.0, 2.0 ) 0.001718213058419244, 0.001718213058419244, 0.001718213058419244, 0.001718213058419244, 0.001718213058419244, 0.9914089347079038;
    ( 1.0, 999.0, 2.0, 3.0 ) 0.00010410160316468873, 0.00010410160316468873, 0.00010410160316468873, 0.00010410160316468873, 0.00010410160316468873, 0.9994794919841766;
    ( 1.0, 999.0, 2.0, 4.0 ) 4.527755139002083e-05, 4.527755139002083e-05, 4.527755139002083e-05, 4.527755139002083e-05, 4.527755139002083e-05, 0.9997736122430498;
    ( 1.0, 999.0, 2.0, 9.0 ) 0.0012919896640826872, 0.0012919896640826872, 0.0012919896640826872, 0.0012919896640826872, 0.0012919896640826872, 0.9935400516795865;
    ( 2.0, 1.0, 1.0, 1.0 ) 2.010696907548156e-05, 2.010696907548156e-05, 2.010696907548156e-05, 2.010696907548156e-05, 2.010696907548156e-05, 0.9998994651546225;
    ( 2.0, 1.0, 1.0, 2.0 ) 5.4235817333767214e-05, 5.4235817333767214e-05, 5.4235817333767214e-05, 5.4235817333767214e-05, 5.4235817333767214e-05, 0.9997288209133312;
    ( 2.0, 1.0, 1.0, 3.0 ) 4.7090290923817326e-06, 4.7090290923817326e-06, 4.7090290923817326e-06, 4.7090290923817326e-06, 4.7090290923817326e-06, 0.999976454854538;
    ( 2.0, 1.0, 1.0, 4.0 ) 5.767611401414218e-06, 5.767611401414218e-06, 5.767611401414218e-06, 5.767611401414218e-06, 5.767611401414218e-06, 0.999971161942993;
    ( 2.0, 1.0, 1.0, 9.0 ) 0.0003465003465003465, 0.0003465003465003465, 0.0003465003465003465, 0.0003465003465003465, 0.0003465003465003465, 0.9982674982674983;
    ( 2.0, 1.0, 2.0, 1.0 ) 2.0830729492146813e-05, 2.0830729492146813e-05, 2.0830729492146813e-05, 2.0830729492146813e-05, 2.0830729492146813e-05, 0.9998958463525393;
    ( 2.0, 1.0, 2.0, 2.0 ) 5.721478430026319e-05, 5.721478430026319e-05, 5.721478430026319e-05, 5.721478430026319e-05, 5.721478430026319e-05, 0.9997139260784986;
    ( 2.0, 1.0, 2.0, 3.0 ) 6.01402470561349e-06, 6.01402470561349e-06, 6.01402470561349e-06, 6.01402470561349e-06, 6.01402470561349e-06, 0.9999699298764719;
    ( 2.0, 1.0, 2.0, 4.0 ) 4.524927827401153e-06, 4.524927827401153e-06, 4.524927827401153e-06, 4.524927827401153e-06, 4.524927827401153e-06, 0.999977375360863;
    ( 2.0, 1.0, 2.0, 9.0 ) 0.0002600104004160166, 0.0002600104004160166, 0.0002600104004160166, 0.0002600104004160166, 0.0002600104004160166, 0.9986999479979198;
    ( 2.0, 2.0, 1.0, 1.0 ) 4.913377160657606e-06, 4.913377160657606e-06, 4.913377160657606e-06, 4.913377160657606e-06, 4.913377160657606e-06, 0.9999754331141967;
    ( 2.0, 2.0, 1.0, 2.0 ) 1.527230520174715e-05, 1.527230520174715e-05, 1.527230520174715e-05, 1.527230520174715e-05, 1.527230520174715e-05, 0.9999236384739912;
    ( 2.0, 2.0, 1.0, 3.0 ) 8.552227598722639e-07, 8.552227598722639e-07, 8.552227598722639e-07, 8.552227598722639e-07, 8.552227598722639e-07, 0.9999957238862006;
    ( 2.0, 2.0, 1.0, 4.0 ) 9.975679293881516e-07, 9.975679293881516e-07, 9.975679293881516e-07, 9.975679293881516e-07, 9.975679293881516e-07, 0.999995012160353;
    ( 2.0, 2.0, 1.0, 9.0 ) 5.721478430026319e-05, 5.721478430026319e-05, 5.721478430026319e-05, 5.721478430026319e-05, 5.721478430026319e-05, 0.9997139260784986;
    ( 2.0, 2.0, 2.0, 1.0 ) 3.4767855031951656e-06, 3.4767855031951656e-06, 3.4767855031951656e-06, 3.4767855031951656e-06, 3.4767855031951656e-06, 0.999982616072484;
    ( 2.0, 2.0, 2.0, 2.0 ) 8.440955516164429e-06, 8.440955516164429e-06, 8.440955516164429e-06, 8.440955516164429e-06, 8.440955516164429e-06, 0.9999577952224192;
    ( 2.0, 2.0, 2.0, 3.0 ) 7.604481777380317e-07, 7.604481777380317e-07, 7.604481777380317e-07, 7.604481777380317e-07, 7.604481777380317e-07, 0.9999961977591113;
    ( 2.0, 2.0, 2.0, 4.0 ) 3.946295651734673e-07, 3.946295651734673e-07, 3.946295651734673e-07, 3.946295651734673e-07, 3.946295651734673e-07, 0.9999980268521742;
    ( 2.0, 2.0, 2.0, 9.0 ) 3.3380065424928234e-05, 3.3380065424928234e-05, 3.3380065424928234e-05, 3.3380065424928234e-05, 3.3380065424928234e-05, 0.9998330996728754;
    ( 2.0, 9.0, 1.0, 1.0 ) 0.00011074197120708748, 0.00011074197120708748, 0.00011074197120708748, 0.00011074197120708748, 0.00011074197120708748, 0.9994462901439646;
    ( 2.0, 9.0, 1.0, 2.0 ) 0.0004329004329004329, 0.0004329004329004329, 0.0004329004329004329, 0.0004329004329004329, 0.0004329004329004329, 0.9978354978354979;
    ( 2.0, 9.0, 1.0, 3.0 ) 1.6853743216368354e-05, 1.6853743216368354e-05, 1.6853743216368354e-05, 1.6853743216368354e-05, 1.6853743216368354e-05, 0.9999157312839181;
    ( 2.0, 9.0, 1.0, 4.0 ) 2.670512204240773e-05, 2.670512204240773e-05, 2.670512204240773e-05, 2.670512204240773e-05, 2.670512204240773e-05, 0.999866474389788;
    ( 2.0, 9.0, 1.0, 9.0 ) 0.0003711952487008166, 0.0003711952487008166, 0.0003711952487008166, 0.0003711952487008166, 0.0003711952487008166, 0.9981440237564959;
    ( 2.0, 9.0, 2.0, 1.0 ) 9.63948332369385e-05, 9.63948332369385e-05, 9.63948332369385e-05, 9.63948332369385e-05, 9.63948332369385e-05, 0.9995180258338153;
    ( 2.0, 9.0, 2.0, 2.0 ) 0.0002261420171867933, 0.0002261420171867933, 0.0002261420171867933, 0.0002261420171867933, 0.0002261420171867933, 0.998869289914066;
    ( 2.0, 9.0, 2.0, 3.0 ) 2.0502726862672734e-05, 2.0502726862672734e-05, 2.0502726862672734e-05, 2.0502726862672734e-05, 2.0502726862672734e-05, 0.9998974863656866;
    ( 2.0, 9.0, 2.0, 4.0 ) 1.4346790622937647e-05, 1.4346790622937647e-05, 1.4346790622937647e-05, 1.4346790622937647e-05, 1.4346790622937647e-05, 0.9999282660468852;
    ( 2.0, 9.0, 2.0, 9.0 ) 0.0003058103975535168, 0.0003058103975535168, 0.0003058103975535168, 0.0003058103975535168, 0.0003058103975535168, 0.9984709480122324;
    ( 2.0, 999.0, 1.0, 1.0 ) 0.002564102564102564, 0.002564102564102564, 0.002564102564102564, 0.002564102564102564, 0.002564102564102564, 0.9871794871794872;
    ( 2.0, 999.0, 1.0, 2.0 ) 0.00505050505050505, 0.00505050505050505, 0.00505050505050505, 0.00505050505050505, 0.00505050505050505, 0.9747474747474747;
    ( 2.0, 999.0, 1.0, 3.0 ) 0.0002736726874657909, 0.0002736726874657909, 0.0002736726874657909, 0.0002736726874657909, 0.0002736726874657909, 0.998631636562671;
    ( 2.0, 999.0, 1.0, 4.0 ) 0.00016784155756965425, 0.00016784155756965425, 0.00016784155756965425, 0.00016784155756965425, 0.00016784155756965425, 0.9991607922121517;
    ( 2.0, 999.0, 1.0, 9.0 ) 0.00505050505050505, 0.00505050505050505, 0.00505050505050505, 0.00505050505050505, 0.00505050505050505, 0.9747474747474747;
    ( 2.0, 999.0, 2.0, 1.0 ) 0.0010351966873706003, 0.0010351966873706003, 0.0010351966873706003, 0.0010351966873706003, 0.0010351966873706003, 0.9948240165631469;
    ( 2.0, 999.0, 2.0, 2.0 ) 0.16666666666666669, 0.16666666666666669, 0.16666666666666669, 0.16666666666666669, 0.16666666666666669, 0.16666666666666669;
    ( 2.0, 999.0, 2.0, 3.0 ) 0.00021673168617251842, 0.00021673168617251842, 0.00021673168617251842, 0.00021673168617251842, 0.00021673168617251842, 0.9989163415691373;
    ( 2.0, 999.0, 2.0, 4.0 ) 9.821253191907286e-05, 9.821253191907286e-05, 9.821253191907286e-05, 9.821253191907286e-05, 9.821253191907286e-05, 0.9995089373404047;
    ( 2.0, 999.0, 2.0, 9.0 ) 0.001718213058419244, 0.001718213058419244, 0.001718213058419244, 0.001718213058419244, 0.001718213058419244, 0.9914089347079038;
    ( 9.0, 1.0, 1.0, 1.0 ) 0.00020807324178110693, 0.00020807324178110693, 0.19995838535164376, 0.3597586350395339, 0.2399084477736163, 0.19995838535164376;
    ( 9.0, 1.0, 1.0, 2.0 ) 0.0004329004329004329, 0.0004329004329004329, 0.33290043290043286, 0.4991341991341991, 0.16666666666666669, 0.0004329004329004329;
    ( 9.0, 1.0, 1.0, 3.0 ) 5.7214784300263194e-05, 0.011042453369950796, 0.06596864629820347, 0.32961437235381624, 0.4174962810390206, 0.1758210321547088;
    ( 9.0, 1.0, 1.0, 4.0 ) 0.0058773372312564695, 0.023417991351483033, 0.1345088007795846, 0.3683841890492721, 0.39761861258298303, 0.07019306900542054;
    ( 9.0, 1.0, 1.0, 9.0 ) 0.0010351966873706005, 0.0010351966873706005, 0.1997929606625259, 0.0010351966873706005, 0.7960662525879918, 0.0010351966873706005;
    ( 9.0, 1.0, 2.0, 1.0 ) 0.00020807324178110696, 0.00020807324178110696, 0.0801081980857262, 0.2798585101955889, 0.39970869746150656, 0.23990844777361633;
    ( 9.0, 1.0, 2.0, 2.0 ) 0.0003711952487008166, 0.0716406829992576, 0.0003711952487008166, 0.285449146250928, 0.42798812175204154, 0.2141796585003712;
    ( 9.0, 1.0, 2.0, 3.0 ) 5.367686527106817e-05, 5.367686527106817e-05, 0.020665593129361247, 0.2783145464304885, 0.5050456253354805, 0.19586688137412775;
    ( 9.0, 1.0, 2.0, 4.0 ) 1.674536990522121e-05, 0.028952744566127474, 0.09003985398037444, 0.31509762550654746, 0.4437020663786464, 0.12219096419839917;
    ( 9.0, 1.0, 2.0, 9.0 ) 0.0010351966873706005, 0.0010351966873706005, 0.0010351966873706005, 0.7960662525879918, 0.1997929606625259, 0.0010351966873706005;
    ( 9.0, 2.0, 1.0, 1.0 ) 0.00016784155756965425, 0.03239342061094327, 0.06461899966431689, 0.2579724739845586, 0.38687479019805304, 0.2579724739845586;
    ( 9.0, 2.0, 1.0, 2.0 ) 0.0002888503755054882, 0.0002888503755054882, 0.1666666666666667, 0.3885037550548816, 0.4439630271519354, 0.0002888503755054882;
    ( 9.0, 2.0, 1.0, 3.0 ) 2.188088048663078e-05, 2.188088048663078e-05, 0.01682639709421907, 0.2772963984070719, 0.4579449477046956, 0.24788849503304014;
    ( 9.0, 2.0, 1.0, 4.0 ) 1.1104448442045883e-05, 0.0021431585493148554, 0.078897106180736, 0.36885646389943816, 0.48185533124569707, 0.06823683567637195;
    ( 9.0, 2.0, 1.0, 9.0 ) 0.0002261420171867933, 0.0002261420171867933, 0.043645409317051104, 0.3909995477159657, 0.4778380823156943, 0.08706467661691543;
    ( 9.0, 2.0, 2.0, 1.0 ) 8.263097008758882e-05, 8.263097008758882e-05, 0.0318129234837217, 0.3015204098496116, 0.42844157990414805, 0.23805982482234342;
    ( 9.0, 2.0, 2.0, 2.0 ) 0.00016784155756965425, 0.00016784155756965425, 0.00016784155756965425, 0.19352131587781135, 0.5802282645182948, 0.22574689493118497;
    ( 9.0, 2.0, 2.0, 3.0 ) 1.3669045080510675e-05, 1.3669045080510675e-05, 0.00788703901145466, 0.23621476803630498, 0.47241586702752947, 0.28345498783454987;
    ( 9.0, 2.0, 2.0, 4.0 ) 0.0009411787654465478, 0.01030420068076972, 0.05056519491665935, 0.262169490202963, 0.46441076357394345, 0.21160917186021788;
    ( 9.0, 2.0, 2.0, 9.0 ) 0.0001794043774668102, 0.0001794043774668102, 0.1035163257983495, 0.20685324721923218, 0.5513096519555077, 0.13796196627197704;
    ( 9.0, 9.0, 1.0, 1.0 ) 0.0004721435316336166, 0.0004721435316336166, 0.18177525967894242, 0.091123701605288, 0.0004721435316336166, 0.7256846081208688;
    ( 9.0, 9.0, 1.0, 2.0 ) 0.002564102564102564, 0.002564102564102564, 0.002564102564102564, 0.49487179487179483, 0.002564102564102564, 0.49487179487179483;
    ( 9.0, 9.0, 1.0, 3.0 ) 9.1324200913242e-05, 9.1324200913242e-05, 0.017625570776255706, 0.19296803652968036, 0.19296803652968036, 0.5962557077625571;
    ( 9.0, 9.0, 1.0, 4.0 ) 5.785028346638898e-05, 5.785028346638898e-05, 0.07780863126229318, 0.24441744764549345, 0.3332754830498669, 0.3443827374754136;
    ( 9.0, 9.0, 1.0, 9.0 ) 6.507874528179097e-05, 0.012560197839385655, 0.025055316933489523, 0.10002603149811272, 0.06254067421580112, 0.7997527007679291;
    ( 9.0, 9.0, 2.0, 1.0 ) 0.0005767012687427913, 0.0005767012687427913, 0.0005767012687427913, 0.0005767012687427913, 0.1113033448673587, 0.8863898500576702;
    ( 9.0, 9.0, 2.0, 2.0 ) 0.0007407407407407407, 0.0007407407407407407, 0.0007407407407407407, 0.2851851851851852, 0.2851851851851852, 0.4274074074074074;
    ( 9.0, 9.0, 2.0, 3.0 ) 0.00012103606874848704, 0.00012103606874848704, 0.023359961268457997, 0.16279351246671508, 0.13955458726700556, 0.6740498668603243;
    ( 9.0, 9.0, 2.0, 4.0 ) 3.295761650517434e-05, 0.006360819985498648, 0.019016544723485598, 0.2215081405312768, 0.3417375255421528, 0.41134401160108097;
    ( 9.0, 9.0, 2.0, 9.0 ) 5.155170636148056e-05, 5.155170636148056e-05, 0.029745334570574287, 0.04954118981338282, 5.155170636148056e-05, 0.9205588204969584;
    ( 9.0, 999.0, 1.0, 1.0 ) 2.1608539694887417e-05, 0.004170448161113271, 0.016616967025368426, 0.02076580664678681, 0.024914646268205193, 0.9335105233588314;
    ( 9.0, 999.0, 1.0, 2.0 ) 6.42756138321121e-05, 6.42756138321121e-05, 6.42756138321121e-05, 0.012405193469597633, 0.024746111325363158, 0.9626558683635428;
    ( 9.0, 999.0, 1.0, 3.0 ) 3.683322651697643e-06, 0.0007108812717776451, 0.0021252771700295404, 0.012733246406918752, 0.01980522589817823, 0.9646216859304441;
    ( 9.0, 999.0, 1.0, 4.0 ) 5.161716580466e-06, 5.161716580466e-06, 0.008924607967625715, 0.06640548380769508, 0.04361134338835723, 0.8810482414031611;
    ( 9.0, 999.0, 1.0, 9.0 ) 3.3907730284350224e-06, 0.0013054476159474837, 0.014977044466597493, 0.06445520449752135, 0.05208566448979038, 0.8671732481571148;
    ( 9.0, 999.0, 2.0, 1.0 ) 2.188088048663078e-05, 2.188088048663078e-05, 2.188088048663078e-05, 0.04203317141481774, 0.02102752614765218, 0.9368736597960702;
    ( 9.0, 999.0, 2.0, 2.0 ) 3.800836183960471e-05, 3.800836183960471e-05, 3.800836183960471e-05, 0.014633219308247816, 0.021930824781451922, 0.9633219308247816;
    ( 9.0, 999.0, 2.0, 3.0 ) 3.849381404408311e-06, 0.0007429306110508041, 0.0007429306110508041, 0.014785473974332324, 0.02217628627079628, 0.9615485291513653;
    ( 9.0, 999.0, 2.0, 4.0 ) 0.0007998338007686715, 0.0011987119559572037, 0.004389737197465462, 0.024732523112080608, 0.04308091825075309, 0.925798275682975;
    ( 9.0, 999.0, 2.0, 9.0 ) 1.987131337458618e-06, 0.00038351634812951326, 0.006106454600010333, 0.035865733509790595, 0.06486195398598675, 0.8927803544247455;
    ( 65.0, 1.0, 1.0, 1.0 ) 0.05826718635902397, 0.19264369778182405, 0.23397631037393196, 0.2703927091334984, 0.24471914800800404, 9.483437176970422e-07;
    ( 65.0, 1.0, 1.0, 2.0 ) 0.08639503693173173, 0.24874684265212876, 0.24832948582508402, 0.2128541555262826, 0.2036723053312987, 2.1737334741912623e-06;
    ( 65.0, 1.0, 1.0, 3.0 ) 0.027651358433319537, 0.147275993668252, 0.2207379391063545, 0.26197973303651734, 0.3423543655254142, 6.102301421958275e-07;
    ( 65.0, 1.0, 1.0, 4.0 ) 0.07803916647946252, 0.19150309072351196, 0.22369006010096207, 0.28599159841304855, 0.22077574697825533, 3.373047595725404e-07;
    ( 65.0, 1.0, 1.0, 9.0 ) 0.07363746725448853, 0.17791195450769914, 0.2208485080825506, 0.23311609481822246, 0.29445402849658164, 3.194684045747875e-05;
    ( 65.0, 1.0, 2.0, 1.0 ) 0.05486375286338243, 0.20911833942024718, 0.2449844304817448, 0.2848018705584922, 0.2062308151398724, 7.915362610676558e-07;
    ( 65.0, 1.0, 2.0, 2.0 ) 0.06574383576349171, 0.219615616682769, 0.24733385897307758, 0.2515982039408174, 0.21570663379567417, 1.8508441700259485e-06;
    ( 65.0, 1.0, 2.0, 3.0 ) 0.02676394109642563, 0.16336683943086266, 0.23549874131903958, 0.276191083211818, 0.2981788767529036, 5.181889503460983e-07;
    ( 65.0, 1.0, 2.0, 4.0 ) 0.0781596668974622, 0.21504733365340273, 0.26662704882456784, 0.2481436593145332, 0.19202208560991937, 2.0570011473952402e-07;
    ( 65.0, 1.0, 2.0, 9.0 ) 0.06317491640629282, 0.1894699336731897, 0.2263059803760346, 0.24209285753439674, 0.27892890423724165, 2.740777284437866e-05;
    ( 65.0, 2.0, 1.0, 1.0 ) 0.07831759885248693, 0.13948233810845753, 0.1412622643831022, 0.2567956607554911, 0.38414129513233997, 8.427681224643215e-07;
    ( 65.0, 2.0, 1.0, 2.0 ) 0.15789484614010824, 0.20015907231352612, 0.1570974079104211, 0.20055779142836969, 0.2842888055455184, 2.076662056476901e-06;
    ( 65.0, 2.0, 1.0, 3.0 ) 0.03402970958274623, 0.098453374452079, 0.13549891523528476, 0.2126835701447615, 0.5193340277760993, 4.0280902904494777e-07;
    ( 65.0, 2.0, 1.0, 4.0 ) 0.1556040281877155, 0.1463587134755517, 0.14841664067061808, 0.23208520304913655, 0.31753525464129456, 1.599756836960782e-07;
    ( 65.0, 2.0, 1.0, 9.0 ) 0.08503057136833227, 0.11336706725701032, 0.17813620071684585, 0.21456883828800336, 0.40887623866750994, 2.1083702298123547e-05;
    ( 65.0, 2.0, 2.0, 1.0 ) 0.042949337526688405, 0.07756454878865124, 0.10817336985825728, 0.30160188834524404, 0.4697100208165358, 8.346646234076686e-07;
    ( 65.0, 2.0, 2.0, 2.0 ) 0.07886958579458947, 0.10844484330560651, 0.11058797790785412, 0.251606234735747, 0.4504891258243254, 2.2324318773412623e-06;
    ( 65.0, 2.0, 2.0, 3.0 ) 0.015678304450194535, 0.05475486466901539, 0.08603186952157965, 0.23863529118257965, 0.6048992598464872, 4.1033014342679823e-07;
    ( 65.0, 2.0, 2.0, 4.0 ) 0.10200288494133797, 0.11251719491430345, 0.13873318460353376, 0.24341104937863264, 0.40333556500725587, 1.2115493608229034e-07;
    ( 65.0, 2.0, 2.0, 9.0 ) 0.048474420738701535, 0.09692590043587977, 0.1365680201881165, 0.20704289974764853, 0.5109658178481302, 2.2941041523285152e-05;
    ( 65.0, 9.0, 1.0, 1.0 ) 0.04652410117997163, 0.12625004325409186, 0.1362157860133569, 0.25580469912453724, 0.4351880687913078, 1.7301636734835118e-05;
    ( 65.0, 9.0, 1.0, 2.0 ) 0.07202366075147881, 0.21598766974922937, 0.19999166874947932, 0.20798966924935433, 0.3039656752478548, 4.165625260351579e-05;
    ( 65.0, 9.0, 1.0, 3.0 ) 0.0189691726253967, 0.08344197316267002, 0.13400887554484517, 0.25157692358340245, 0.5119964708516045, 6.584232081012391e-06;
    ( 65.0, 9.0, 1.0, 4.0 ) 0.08280885653092404, 0.13543928130231064, 0.17122797014685354, 0.27648881968962674, 0.33403141743967607, 3.6548906091240692e-06;
    ( 65.0, 9.0, 1.0, 9.0 ) 0.12813705863579658, 0.21448051759654163, 0.1866277888995271, 0.23676270055415327, 0.23397742768445182, 1.4506629529695073e-05;
    ( 65.0, 9.0, 2.0, 1.0 ) 0.05914881702365953, 0.14785104297914045, 0.15053898922021564, 0.276872462550749, 0.36557468850623, 1.399972000559989e-05;
    ( 65.0, 9.0, 2.0, 2.0 ) 0.040294960508841814, 0.20133501083385752, 0.14765499405885227, 0.2952750401901167, 0.31540504648074363, 3.494792758789403e-05;
    ( 65.0, 9.0, 2.0, 3.0 ) 0.021453804158114462, 0.08579427246959603, 0.16890071070525975, 0.266751839595638, 0.45709239168377097, 6.98138762060347e-06;
    ( 65.0, 9.0, 2.0, 4.0 ) 0.0974182890855457, 0.16810147492625366, 0.2138643067846607, 0.2501120943952802, 0.27050147492625365, 2.3598820058997043e-06;
    ( 65.0, 9.0, 2.0, 9.0 ) 0.08399628201973812, 0.22834139806993087, 0.20209683151535035, 0.23883922469176305, 0.24671259465813722, 1.3669045080510677e-05;
    ( 65.0, 999.0, 1.0, 1.0 ) 0.08172465240592765, 0.22143962068997086, 0.18014022754940462, 0.23110543610584802, 0.28558548663170136, 4.57661714766913e-06;
    ( 65.0, 999.0, 1.0, 2.0 ) 0.13035593055959654, 0.256977984676559, 0.17318397827562795, 0.2160120259916594, 0.2234603821161866, 9.698380370478129e-06;
    ( 65.0, 999.0, 1.0, 3.0 ) 0.049554423735875576, 0.15223907514163296, 0.17611922663134397, 0.2262675447597371, 0.39581662033668535, 3.1093947252227884e-06;
    ( 65.0, 999.0, 1.0, 4.0 ) 0.16691842702227816, 0.19058390044975937, 0.2046824803640035, 0.22054338276752813, 0.2172704981445786, 1.311251852143241e-06;
    ( 65.0, 999.0, 1.0, 9.0 ) 0.11715646148356704, 0.18825541892673917, 0.18710401880620195, 0.24006842435091316, 0.26741417721367167, 1.499218906949479e-06;
    ( 65.0, 999.0, 2.0, 1.0 ) 0.08152414918810799, 0.2019917537056432, 0.19383981054280247, 0.267207299008369, 0.2554322699953768, 4.717559700718013e-06;
    ( 65.0, 999.0, 2.0, 2.0 ) 0.09053987440793845, 0.2222186502068197, 0.16666666666666666, 0.26748322938768515, 0.2530808632846825, 1.0716046207591246e-05;
    ( 65.0, 999.0, 2.0, 3.0 ) 0.03701561791900868, 0.1428576259951435, 0.19025926151390327, 0.23506354714122416, 0.39480056546471604, 3.381966004477723e-06;
    ( 65.0, 999.0, 2.0, 4.0 ) 0.13176542270272149, 0.2004577318961723, 0.19983325635805002, 0.21627777886193672, 0.25166472602219925, 1.084158920351181e-06;
    ( 65.0, 999.0, 2.0, 9.0 ) 0.09812427534222333, 0.16861053226526368, 0.19244401482197518, 0.23275809701896588, 0.3080617599907032, 1.3205608686121167e-06;

}
probability ( Arthritis | Age_Cat, Depression, Good_Health, Hypertension, Pneumonia_Vaccine, SEX ) {
    ( 1.0, 1.0, 1.0, 1.0, 1.0, 1.0 ) 0.3333333333333333, 0.3333333333333333, 0.3333333333333333;
    ( 1.0, 1.0, 1.0, 1.0, 1.0, 2.0 ) 0.3333333333333333, 0.3333333333333333, 0.3333333333333333;
    ( 1.0, 1.0, 1.0, 1.0, 2.0, 1.0 ) 0.3333333333333333, 0.3333333333333333, 0.3333333333333333;
    ( 1.0, 1.0, 1.0, 1.0, 2.0, 2.0 ) 0.3333333333333333, 0.3333333333333333, 0.3333333333333333;
    ( 1.0, 1.0, 1.0, 1.0, 9.0, 1.0 ) 0.3333333333333333, 0.3333333333333333, 0.3333333333333333;
    ( 1.0, 1.0, 1.0, 1.0, 9.0, 2.0 ) 0.3333333333333333, 0.3333333333333333, 0.3333333333333333;
    ( 1.0, 1.0, 1.0, 1.0, 65.0, 1.0 ) 0.08904593732948068, 0.8835507392859361, 0.027403323384583272;
    ( 1.0, 1.0, 1.0, 1.0, 65.0, 2.0 ) 0.10170059520014649, 0.898291231219155, 8.173580698579596e-06;
    ( 1.0, 1.0, 1.0, 2.0, 1.0, 1.0 ) 0.3333333333333333, 0.3333333333333333, 0.3333333333333333;
    ( 1.0, 1.0, 1.0, 2.0, 1.0, 2.0 ) 0.3333333333333333, 0.3333333333333333, 0.3333333333333333;
    ( 1.0, 1.0, 1.0, 2.0, 2.0, 1.0 ) 0.3333333333333333, 0.3333333333333333, 0.3333333333333333;
    ( 1.0, 1.0, 1.0, 2.0, 2.0, 2.0 ) 0.3333333333333333, 0.3333333333333333, 0.3333333333333333;
    ( 1.0, 1.0, 1.0, 2.0, 9.0, 1.0 ) 0.3333333333333333, 0.3333333333333333, 0.3333333333333333;
    ( 1.0, 1.0, 1.0, 2.0, 9.0, 2.0 ) 0.3333333333333333, 0.3333333333333333, 0.3333333333333333;
    ( 1.0, 1.0, 1.0, 2.0, 65.0, 1.0 ) 0.03703802932401516, 0.956016433165416, 0.006945537510568786;
    ( 1.0, 1.0, 1.0, 2.0, 65.0, 2.0 ) 0.07266716949491482, 0.9206655336956012, 0.006667296809484037;
    ( 1.0, 1.0, 1.0, 9.0, 1.0, 1.0 ) 0.3333333333333333, 0.3333333333333333, 0.3333333333333333;
    ( 1.0, 1.0, 1.0, 9.0, 1.0, 2.0 ) 0.3333333333333333, 0.3333333333333333, 0.3333333333333333;
    ( 1.0, 1.0, 1.0, 9.0, 2.0, 1.0 ) 0.3333333333333333, 0.3333333333333333, 0.3333333333333333;
    ( 1.0, 1.0, 1.0, 9.0, 2.0, 2.0 ) 0.3333333333333333, 0.3333333333333333, 0.3333333333333333;
    ( 1.0, 1.0, 1.0, 9.0, 9.0, 1.0 ) 0.3333333333333333, 0.3333333333333333, 0.3333333333333333;
    ( 1.0, 1.0, 1.0, 9.0, 9.0, 2.0 ) 0.3333333333333333, 0.3333333333333333, 0.3333333333333333;
    ( 1.0, 1.0, 1.0, 9.0, 65.0, 1.0 ) 0.0009617234083477589, 0.9980765531833042, 0.0009617234083477589;
    ( 1.0, 1.0, 1.0, 9.0, 65.0, 2.0 ) 0.0009617234083477589, 0.9980765531833042, 0.0009617234083477589;
    ( 1.0, 1.0, 2.0, 1.0, 1.0, 1.0 ) 0.3333333333333333, 0.3333333333333333, 0.3333333333333333;
    ( 1.0, 1.0, 2.0, 1.0, 1.0, 2.0 ) 0.3333333333333333, 0.3333333333333333, 0.3333333333333333;
    ( 1.0, 1.0, 2.0, 1.0, 2.0, 1.0 ) 0.3333333333333333, 0.3333333333333333, 0.3333333333333333;
    ( 1.0, 1.0, 2.0, 1.0, 2.0, 2.0 ) 0.3333333333333333, 0.3333333333333333, 0.3333333333333333;
    ( 1.0, 1.0, 2.0, 1.0, 9.0, 1.0 ) 0.3333333333333333, 0.3333333333333333, 0.3333333333333333;
    ( 1.0, 1.0, 2.0, 1.0, 9.0, 2.0 ) 0.3333333333333333, 0.3333333333333333, 0.3333333333333333;
    ( 1.0, 1.0, 2.0, 1.0, 65.0, 1.0 ) 0.2500050231668455, 0.7499748841657725, 2.0092667381965623e-05;
    ( 1.0, 1.0, 2.0, 1.0, 65.0, 2.0 ) 0.18368230649015277, 0.8162980108726887, 1.9682637158457033e-05;
    ( 1.0, 1.0, 2.0, 2.0, 1.0, 1.0 ) 0.3333333333333333, 0.3333333333333333, 0.3333333333333333;
    ( 1.0, 1.0, 2.0, 2.0, 1.0, 2.0 ) 0.3333333333333333, 0.3333333333333333, 0.3333333333333333;
    ( 1.0, 1.0, 2.0, 2.0, 2.0, 1.0 ) 0.3333333333333333, 0.3333333333333333, 0.3333333333333333;
    ( 1.0, 1.0, 2.0, 2.0, 2.0, 2.0 ) 0.3333333333333333, 0.3333333333333333, 0.3333333333333333;
    ( 1.0, 1.0, 2.0, 2.0, 9.0, 1.0 ) 0.3333333333333333, 0.3333333333333333, 0.3333333333333333;
    ( 1.0, 1.0, 2.0, 2.0, 9.0, 2.0 ) 0.3333333333333333, 0.3333333333333333, 0.3333333333333333;
    ( 1.0, 1.0, 2.0, 2.0, 65.0, 1.0 ) 0.08442026126352946, 0.9090800913382711, 0.00649964739819954;
    ( 1.0, 1.0, 2.0, 2.0, 65.0, 2.0 ) 0.15953503069496955, 0.8287881960785196, 0.011676773226510785;
    ( 1.0, 1.0, 2.0, 9.0, 1.0, 1.0 ) 0.3333333333333333, 0.3333333333333333, 0.3333333333333333;
    ( 1.0, 1.0, 2.0, 9.0, 1.0, 2.0 ) 0.3333333333333333, 0.3333333333333333, 0.3333333333333333;
    ( 1.0, 1.0, 2.0, 9.0, 2.0, 1.0 ) 0.3333333333333333, 0.3333333333333333, 0.3333333333333333;
    ( 1.0, 1.0, 2.0, 9.0, 2.0, 2.0 ) 0.3333333333333333, 0.3333333333333333, 0.3333333333333333;
    ( 1.0, 1.0, 2.0, 9.0, 9.0, 1.0 ) 0.3333333333333333, 0.3333333333333333, 0.3333333333333333;
    ( 1.0, 1.0, 2.0, 9.0, 9.0, 2.0 ) 0.3333333333333333, 0.3333333333333333, 0.3333333333333333;
    ( 1.0, 1.0, 2.0, 9.0, 65.0, 1.0 ) 0.4998795238783673, 0.4998795238783673, 0.0002409522432653848;
    ( 1.0, 1.0, 2.0, 9.0, 65.0, 2.0 ) 0.0009617234083477589, 0.9980765531833042, 0.0009617234083477589;
    ( 1.0, 1.0, 9.0, 1.0, 1.0, 1.0 ) 0.3333333333333333, 0.3333333333333333, 0.3333333333333333;
    ( 1.0, 1.0, 9.0, 1.0, 1.0, 2.0 ) 0.3333333333333333, 0.3333333333333333, 0.3333333333333333;
    ( 1.0, 1.0, 9.0, 1.0, 2.0, 1.0 ) 0.3333333333333333, 0.3333333333333333, 0.3333333333333333;
    ( 1.0, 1.0, 9.0, 1.0, 2.0, 2.0 ) 0.3333333333333333, 0.3333333333333333, 0.3333333333333333;
    ( 1.0, 1.0, 9.0, 1.0, 9.0, 1.0 ) 0.3333333333333333, 0.3333333333333333, 0.3333333333333333;
    ( 1.0, 1.0, 9.0, 1.0, 9.0, 2.0 ) 0.3333333333333333, 0.3333333333333333, 0.3333333333333333;
    ( 1.0, 1.0, 9.0, 1.0, 65.0, 1.0 ) 0.49975922180487337, 0.49975922180487337, 0.0004815563902532986;
    ( 1.0, 1.0, 9.0, 1.0, 65.0, 2.0 ) 0.9980765531833042, 0.0009617234083477589, 0.0009617234083477589;
    ( 1.0, 1.0, 9.0, 2.0, 1.0, 1.0 ) 0.3333333333333333, 0.3333333333333333, 0.3333333333333333;
    ( 1.0, 1.0, 9.0, 2.0, 1.0, 2.0 ) 0.3333333333333333, 0.3333333333333333, 0.3333333333333333;
    ( 1.0, 1.0, 9.0, 2.0, 2.0, 1.0 ) 0.3333333333333333, 0.3333333333333333, 0.3333333333333333;
    ( 1.0, 1.0, 9.0, 2.0, 2.0, 2.0 ) 0.3333333333333333, 0.3333333333333333, 0.3333333333333333;
    ( 1.0, 1.0, 9.0, 2.0, 9.0, 1.0 ) 0.3333333333333333, 0.3333333333333333, 0.3333333333333333;
    ( 1.0, 1.0, 9.0, 2.0, 9.0, 2.0 ) 0.3333333333333333, 0.3333333333333333, 0.3333333333333333;
    ( 1.0, 1.0, 9.0, 2.0, 65.0, 1.0 ) 0.0003211922656902422, 0.9993576154686196, 0.0003211922656902422;
    ( 1.0, 1.0, 9.0, 2.0, 65.0, 2.0 ) 0.6663454744009765, 0.3333333333333334, 0.0003211922656902422;
    ( 1.0, 1.0, 9.0, 9.0, 1.0, 1.0 ) 0.3333333333333333, 0.3333333333333333, 0.3333333333333333;
    ( 1.0, 1.0, 9.0, 9.0, 1.0, 2.0 ) 0.3333333333333333, 0.3333333333333333, 0.3333333333333333;
    ( 1.0, 1.0, 9.0, 9.0, 2.0, 1.0 ) 0.3333333333333333, 0.3333333333333333, 0.3333333333333333;
    ( 1.0, 1.0, 9.0, 9.0, 2.0, 2.0 ) 0.3333333333333333, 0.3333333333333333, 0.3333333333333333;
    ( 1.0, 1.0, 9.0, 9.0, 9.0, 1.0 ) 0.3333333333333333, 0.3333333333333333, 0.3333333333333333;
    ( 1.0, 1.0, 9.0, 9.0, 9.0, 2.0 ) 0.3333333333333333, 0.3333333333333333, 0.3333333333333333;
    ( 1.0, 1.0, 9.0, 9.0, 65.0, 1.0 ) 0.3333333333333333, 0.3333333333333333, 0.3333333333333333;
    ( 1.0, 1.0, 9.0, 9.0, 65.0, 2.0 ) 0.3333333333333333, 0.3333333333333333, 0.3333333333333333;
    ( 1.0, 2.0, 1.0, 1.0, 1.0, 1.0 ) 0.3333333333333333, 0.3333333333333333, 0.3333333333333333;
    ( 1.0, 2.0, 1.0, 1.0, 1.0, 2.0 ) 0.3333333333333333, 0.3333333333333333, 0.3333333333333333;
    ( 1.0, 2.0, 1.0, 1.0, 2.0, 1.0 ) 0.3333333333333333, 0.3333333333333333, 0.3333333333333333;
    ( 1.0, 2.0, 1.0, 1.0, 2.0, 2.0 ) 0.3333333333333333, 0.3333333333333333, 0.3333333333333333;
    ( 1.0, 2.0, 1.0, 1.0, 9.0, 1.0 ) 0.3333333333333333, 0.3333333333333333, 0.3333333333333333;
    ( 1.0, 2.0, 1.0, 1.0, 9.0, 2.0 ) 0.3333333333333333, 0.3333333333333333, 0.3333333333333333;
    ( 1.0, 2.0, 1.0, 1.0, 65.0, 1.0 ) 0.05145937497001442, 0.9468237133005567, 0.0017169117294287405;
    ( 1.0, 2.0, 1.0, 1.0, 65.0, 2.0 ) 0.038317446873297814, 0.9501847322952257, 0.0114978208314764;
    ( 1.0, 2.0, 1.0, 2.0, 1.0, 1.0 ) 0.3333333333333333, 0.3333333333333333, 0.3333333333333333;
    ( 1.0, 2.0, 1.0, 2.0, 1.0, 2.0 ) 0.3333333333333333, 0.3333333333333333, 0.3333333333333333;
    ( 1.0, 2.0, 1.0, 2.0, 2.0, 1.0 ) 0.3333333333333333, 0.3333333333333333, 0.3333333333333333;
    ( 1.0, 2.0, 1.0, 2.0, 2.0, 2.0 ) 0.3333333333333333, 0.3333333333333333, 0.3333333333333333;
    ( 1.0, 2.0, 1.0, 2.0, 9.0, 1.0 ) 0.0009617234083477589, 0.9980765531833042, 0.0009617234083477589;
    ( 1.0, 2.0, 1.0, 2.0, 9.0, 2.0 ) 0.0003211922656902422, 0.9993576154686196, 0.0003211922656902422;
    ( 1.0, 2.0, 1.0, 2.0, 65.0, 1.0 ) 0.016051487167054235, 0.9820757253680946, 0.0018727874648512078;
    ( 1.0, 2.0, 1.0, 2.0, 65.0, 2.0 ) 0.02067626089330351, 0.9779653085942412, 0.001358430512455327;
    ( 1.0, 2.0, 1.0, 9.0, 1.0, 1.0 ) 0.3333333333333333, 0.3333333333333333, 0.3333333333333333;
    ( 1.0, 2.0, 1.0, 9.0, 1.0, 2.0 ) 0.3333333333333333, 0.3333333333333333, 0.3333333333333333;
    ( 1.0, 2.0, 1.0, 9.0, 2.0, 1.0 ) 0.3333333333333333, 0.3333333333333333, 0.3333333333333333;
    ( 1.0, 2.0, 1.0, 9.0, 2.0, 2.0 ) 0.3333333333333333, 0.3333333333333333, 0.3333333333333333;
    ( 1.0, 2.0, 1.0, 9.0, 9.0, 1.0 ) 0.3333333333333333, 0.3333333333333333, 0.3333333333333333;
    ( 1.0, 2.0, 1.0, 9.0, 9.0, 2.0 ) 0.3333333333333333, 0.3333333333333333, 0.3333333333333333;
    ( 1.0, 2.0, 1.0, 9.0, 65.0, 1.0 ) 0.041701826715207634, 0.9165963465695848, 0.041701826715207634;
    ( 1.0, 2.0, 1.0, 9.0, 65.0, 2.0 ) 9.642271719217044e-05, 0.9998071545656155, 9.642271719217044e-05;
    ( 1.0, 2.0, 2.0, 1.0, 1.0, 1.0 ) 0.3333333333333333, 0.3333333333333333, 0.3333333333333333;
    ( 1.0, 2.0, 2.0, 1.0, 1.0, 2.0 ) 0.3333333333333333, 0.3333333333333333, 0.3333333333333333;
    ( 1.0, 2.0, 2.0, 1.0, 2.0, 1.0 ) 0.3333333333333333, 0.3333333333333333, 0.3333333333333333;
    ( 1.0, 2.0, 2.0, 1.0, 2.0, 2.0 ) 0.3333333333333333, 0.3333333333333333, 0.3333333333333333;
    ( 1.0, 2.0, 2.0, 1.0, 9.0, 1.0 ) 0.3333333333333333, 0.3333333333333333, 0.3333333333333333;
    ( 1.0, 2.0, 2.0, 1.0, 9.0, 2.0 ) 0.3333333333333333, 0.3333333333333333, 0.3333333333333333;
    ( 1.0, 2.0, 2.0, 1.0, 65.0, 1.0 ) 0.06850364780273065, 0.9314831403076258, 1.3211889643728185e-05;
    ( 1.0, 2.0, 2.0, 1.0, 65.0, 2.0 ) 0.06523425542710258, 0.9347447783662292, 2.0966206668092364e-05;
    ( 1.0, 2.0, 2.0, 2.0, 1.0, 1.0 ) 0.3333333333333333, 0.3333333333333333, 0.3333333333333333;
    ( 1.0, 2.0, 2.0, 2.0, 1.0, 2.0 ) 0.3333333333333333, 0.3333333333333333, 0.3333333333333333;
    ( 1.0, 2.0, 2.0, 2.0, 2.0, 1.0 ) 0.3333333333333333, 0.3333333333333333, 0.3333333333333333;
    ( 1.0, 2.0, 2.0, 2.0, 2.0, 2.0 ) 0.3333333333333333, 0.3333333333333333, 0.3333333333333333;
    ( 1.0, 2.0, 2.0, 2.0, 9.0, 1.0 ) 0.3333333333333333, 0.3333333333333333, 0.3333333333333333;
    ( 1.0, 2.0, 2.0, 2.0, 9.0, 2.0 ) 0.3333333333333333, 0.3333333333333333, 0.3333333333333333;
    ( 1.0, 2.0, 2.0, 2.0, 65.0, 1.0 ) 0.032560163471481086, 0.958135330520583, 0.009304506007935812;
    ( 1.0, 2.0, 2.0, 2.0, 65.0, 2.0 ) 0.09308041808176469, 0.8997574249198129, 0.0071621569984222705;
    ( 1.0, 2.0, 2.0, 9.0, 1.0, 1.0 ) 0.3333333333333333, 0.3333333333333333, 0.3333333333333333;
    ( 1.0, 2.0, 2.0, 9.0, 1.0, 2.0 ) 0.3333333333333333, 0.3333333333333333, 0.3333333333333333;
    ( 1.0, 2.0, 2.0, 9.0, 2.0, 1.0 ) 0.3333333333333333, 0.3333333333333333, 0.3333333333333333;
    ( 1.0, 2.0, 2.0, 9.0, 2.0, 2.0 ) 0.3333333333333333, 0.3333333333333333, 0.3333333333333333;
    ( 1.0, 2.0, 2.0, 9.0, 9.0, 1.0 ) 0.3333333333333333, 0.3333333333333333, 0.3333333333333333;
    ( 1.0, 2.0, 2.0, 9.0, 9.0, 2.0 ) 0.3333333333333333, 0.3333333333333333, 0.3333333333333333;
    ( 1.0, 2.0, 2.0, 9.0, 65.0, 1.0 ) 0.3333333333333334, 0.6663454744009765, 0.0003211922656902422;
    ( 1.0, 2.0, 2.0, 9.0, 65.0, 2.0 ) 0.0009617234083477589, 0.9980765531833042, 0.0009617234083477589;
    ( 1.0, 2.0, 9.0, 1.0, 1.0, 1.0 ) 0.3333333333333333, 0.3333333333333333, 0.3333333333333333;
    ( 1.0, 2.0, 9.0, 1.0, 1.0, 2.0 ) 0.3333333333333333, 0.3333333333333333, 0.3333333333333333;
    ( 1.0, 2.0, 9.0, 1.0, 2.0, 1.0 ) 0.3333333333333333, 0.3333333333333333, 0.3333333333333333;
    ( 1.0, 2.0, 9.0, 1.0, 2.0, 2.0 ) 0.3333333333333333, 0.3333333333333333, 0.3333333333333333;
    ( 1.0, 2.0, 9.0, 1.0, 9.0, 1.0 ) 0.3333333333333333, 0.3333333333333333, 0.3333333333333333;
    ( 1.0, 2.0, 9.0, 1.0, 9.0, 2.0 ) 0.3333333333333333, 0.3333333333333333, 0.3333333333333333;
    ( 1.0, 2.0, 9.0, 1.0, 65.0, 1.0 ) 0.0004815563902532987, 0.9990368872194936, 0.0004815563902532987;
    ( 1.0, 2.0, 9.0, 1.0, 65.0, 2.0 ) 0.3333333333333333, 0.3333333333333333, 0.3333333333333333;
    ( 1.0, 2.0, 9.0, 2.0, 1.0, 1.0 ) 0.3333333333333333, 0.3333333333333333, 0.3333333333333333;
    ( 1.0, 2.0, 9.0, 2.0, 1.0, 2.0 ) 0.3333333333333333, 0.3333333333333333, 0.3333333333333333;
    ( 1.0, 2.0, 9.0, 2.0, 2.0, 1.0 ) 0.3333333333333333, 0.3333333333333333, 0.3333333333333333;
    ( 1.0, 2.0, 9.0, 2.0, 2.0, 2.0 ) 0.3333333333333333, 0.3333333333333333, 0.3333333333333333;
    ( 1.0, 2.0, 9.0, 2.0, 9.0, 1.0 ) 0.3333333333333333, 0.3333333333333333, 0.3333333333333333;
    ( 1.0, 2.0, 9.0, 2.0, 9.0, 2.0 ) 0.3333333333333333, 0.3333333333333333, 0.3333333333333333;
    ( 1.0, 2.0, 9.0, 2.0, 65.0, 1.0 ) 0.05887024494287693, 0.9410730290550584, 5.6726002064826485e-05;
    ( 1.0, 2.0, 9.0, 2.0, 65.0, 2.0 ) 0.0002409522432653848, 0.9995180955134693, 0.0002409522432653848;
    ( 1.0, 2.0, 9.0, 9.0, 1.0, 1.0 ) 0.3333333333333333, 0.3333333333333333, 0.3333333333333333;
    ( 1.0, 2.0, 9.0, 9.0, 1.0, 2.0 ) 0.3333333333333333, 0.3333333333333333, 0.3333333333333333;
    ( 1.0, 2.0, 9.0, 9.0, 2.0, 1.0 ) 0.3333333333333333, 0.3333333333333333, 0.3333333333333333;
    ( 1.0, 2.0, 9.0, 9.0, 2.0, 2.0 ) 0.3333333333333333, 0.3333333333333333, 0.3333333333333333;
    ( 1.0, 2.0, 9.0, 9.0, 9.0, 1.0 ) 0.3333333333333333, 0.3333333333333333, 0.3333333333333333;
    ( 1.0, 2.0, 9.0, 9.0, 9.0, 2.0 ) 0.3333333333333333, 0.3333333333333333, 0.3333333333333333;
    ( 1.0, 2.0, 9.0, 9.0, 65.0, 1.0 ) 0.3333333333333333, 0.3333333333333333, 0.3333333333333333;
    ( 1.0, 2.0, 9.0, 9.0, 65.0, 2.0 ) 0.3333333333333333, 0.3333333333333333, 0.3333333333333333;
    ( 1.0, 7.0, 1.0, 1.0, 1.0, 1.0 ) 0.3333333333333333, 0.3333333333333333, 0.3333333333333333;
    ( 1.0, 7.0, 1.0, 1.0, 1.0, 2.0 ) 0.3333333333333333, 0.3333333333333333, 0.3333333333333333;
    ( 1.0, 7.0, 1.0, 1.0, 2.0, 1.0 ) 0.3333333333333333, 0.3333333333333333, 0.3333333333333333;
    ( 1.0, 7.0, 1.0, 1.0, 2.0, 2.0 ) 0.3333333333333333, 0.3333333333333333, 0.3333333333333333;
    ( 1.0, 7.0, 1.0, 1.0, 9.0, 1.0 ) 0.3333333333333333, 0.3333333333333333, 0.3333333333333333;
    ( 1.0, 7.0, 1.0, 1.0, 9.0, 2.0 ) 0.3333333333333333, 0.3333333333333333, 0.3333333333333333;
    ( 1.0, 7.0, 1.0, 1.0, 65.0, 1.0 ) 0.20007711586658958, 0.7997300944669367, 0.000192789666473877;
    ( 1.0, 7.0, 1.0, 1.0, 65.0, 2.0 ) 0.0004815563902532987, 0.9990368872194936, 0.0004815563902532987;
    ( 1.0, 7.0, 1.0, 2.0, 1.0, 1.0 ) 0.3333333333333333, 0.3333333333333333, 0.3333333333333333;
    ( 1.0, 7.0, 1.0, 2.0, 1.0, 2.0 ) 0.3333333333333333, 0.3333333333333333, 0.3333333333333333;
    ( 1.0, 7.0, 1.0, 2.0, 2.0, 1.0 ) 0.3333333333333333, 0.3333333333333333, 0.3333333333333333;
    ( 1.0, 7.0, 1.0, 2.0, 2.0, 2.0 ) 0.3333333333333333, 0.3333333333333333, 0.3333333333333333;
    ( 1.0, 7.0, 1.0, 2.0, 9.0, 1.0 ) 0.3333333333333333, 0.3333333333333333, 0.3333333333333333;
    ( 1.0, 7.0, 1.0, 2.0, 9.0, 2.0 ) 0.3333333333333333, 0.3333333333333333, 0.3333333333333333;
    ( 1.0, 7.0, 1.0, 2.0, 65.0, 1.0 ) 0.020852170209003925, 0.9166315044987481, 0.06251632529224783;
    ( 1.0, 7.0, 1.0, 2.0, 65.0, 2.0 ) 0.024412045596751957, 0.9267873860904501, 0.048800568312797846;
    ( 1.0, 7.0, 1.0, 9.0, 1.0, 1.0 ) 0.3333333333333333, 0.3333333333333333, 0.3333333333333333;
    ( 1.0, 7.0, 1.0, 9.0, 1.0, 2.0 ) 0.3333333333333333, 0.3333333333333333, 0.3333333333333333;
    ( 1.0, 7.0, 1.0, 9.0, 2.0, 1.0 ) 0.3333333333333333, 0.3333333333333333, 0.3333333333333333;
    ( 1.0, 7.0, 1.0, 9.0, 2.0, 2.0 ) 0.3333333333333333, 0.3333333333333333, 0.3333333333333333;
    ( 1.0, 7.0, 1.0, 9.0, 9.0, 1.0 ) 0.3333333333333333, 0.3333333333333333, 0.3333333333333333;
    ( 1.0, 7.0, 1.0, 9.0, 9.0, 2.0 ) 0.3333333333333333, 0.3333333333333333, 0.3333333333333333;
    ( 1.0, 7.0, 1.0, 9.0, 65.0, 1.0 ) 0.0009617234083477589, 0.9980765531833042, 0.0009617234083477589;
    ( 1.0, 7.0, 1.0, 9.0, 65.0, 2.0 ) 0.0009617234083477589, 0.9980765531833042, 0.0009617234083477589;
    ( 1.0, 7.0, 2.0, 1.0, 1.0, 1.0 ) 0.3333333333333333, 0.3333333333333333, 0.3333333333333333;
    ( 1.0, 7.0, 2.0, 1.0, 1.0, 2.0 ) 0.3333333333333333, 0.3333333333333333, 0.3333333333333333;
    ( 1.0, 7.0, 2.0, 1.0, 2.0, 1.0 ) 0.3333333333333333, 0.3333333333333333, 0.3333333333333333;
    ( 1.0, 7.0, 2.0, 1.0, 2.0, 2.0 ) 0.3333333333333333, 0.3333333333333333, 0.3333333333333333;
    ( 1.0, 7.0, 2.0, 1.0, 9.0, 1.0 ) 0.3333333333333333, 0.3333333333333333, 0.3333333333333333;
    ( 1.0, 7.0, 2.0, 1.0, 9.0, 2.0 ) 0.3333333333333333, 0.3333333333333333, 0.3333333333333333;
    ( 1.0, 7.0, 2.0, 1.0, 65.0, 1.0 ) 0.3333333333333334, 0.6663454744009765, 0.0003211922656902422;
    ( 1.0, 7.0, 2.0, 1.0, 65.0, 2.0 ) 0.0004815563902532987, 0.9990368872194936, 0.0004815563902532987;
    ( 1.0, 7.0, 2.0, 2.0, 1.0, 1.0 ) 0.3333333333333333, 0.3333333333333333, 0.3333333333333333;
    ( 1.0, 7.0, 2.0, 2.0, 1.0, 2.0 ) 0.3333333333333333, 0.3333333333333333, 0.3333333333333333;
    ( 1.0, 7.0, 2.0, 2.0, 2.0, 1.0 ) 0.3333333333333333, 0.3333333333333333, 0.3333333333333333;
    ( 1.0, 7.0, 2.0, 2.0, 2.0, 2.0 ) 0.3333333333333333, 0.3333333333333333, 0.3333333333333333;
    ( 1.0, 7.0, 2.0, 2.0, 9.0, 1.0 ) 0.3333333333333333, 0.3333333333333333, 0.3333333333333333;
    ( 1.0, 7.0, 2.0, 2.0, 9.0, 2.0 ) 0.3333333333333333, 0.3333333333333333, 0.3333333333333333;
    ( 1.0, 7.0, 2.0, 2.0, 65.0, 1.0 ) 8.035613840541277e-05, 0.9165260434244571, 0.08339360043713738;
    ( 1.0, 7.0, 2.0, 2.0, 65.0, 2.0 ) 0.25003012992021595, 0.7498493503989201, 0.00012051968086388506;
    ( 1.0, 7.0, 2.0, 9.0, 1.0, 1.0 ) 0.3333333333333333, 0.3333333333333333, 0.3333333333333333;
    ( 1.0, 7.0, 2.0, 9.0, 1.0, 2.0 ) 0.3333333333333333, 0.3333333333333333, 0.3333333333333333;
    ( 1.0, 7.0, 2.0, 9.0, 2.0, 1.0 ) 0.3333333333333333, 0.3333333333333333, 0.3333333333333333;
    ( 1.0, 7.0, 2.0, 9.0, 2.0, 2.0 ) 0.3333333333333333, 0.3333333333333333, 0.3333333333333333;
    ( 1.0, 7.0, 2.0, 9.0, 9.0, 1.0 ) 0.3333333333333333, 0.3333333333333333, 0.3333333333333333;
    ( 1.0, 7.0, 2.0, 9.0, 9.0, 2.0 ) 0.3333333333333333, 0.3333333333333333, 0.3333333333333333;
    ( 1.0, 7.0, 2.0, 9.0, 65.0, 1.0 ) 0.0009617234083477589, 0.9980765531833042, 0.0009617234083477589;
    ( 1.0, 7.0, 2.0, 9.0, 65.0, 2.0 ) 0.3333333333333333, 0.3333333333333333, 0.3333333333333333;
    ( 1.0, 7.0, 9.0, 1.0, 1.0, 1.0 ) 0.3333333333333333, 0.3333333333333333, 0.3333333333333333;
    ( 1.0, 7.0, 9.0, 1.0, 1.0, 2.0 ) 0.3333333333333333, 0.3333333333333333, 0.3333333333333333;
    ( 1.0, 7.0, 9.0, 1.0, 2.0, 1.0 ) 0.3333333333333333, 0.3333333333333333, 0.3333333333333333;
    ( 1.0, 7.0, 9.0, 1.0, 2.0, 2.0 ) 0.3333333333333333, 0.3333333333333333, 0.3333333333333333;
    ( 1.0, 7.0, 9.0, 1.0, 9.0, 1.0 ) 0.3333333333333333, 0.3333333333333333, 0.3333333333333333;
    ( 1.0, 7.0, 9.0, 1.0, 9.0, 2.0 ) 0.3333333333333333, 0.3333333333333333, 0.3333333333333333;
    ( 1.0, 7.0, 9.0, 1.0, 65.0, 1.0 ) 0.3333333333333333, 0.3333333333333333, 0.3333333333333333;
    ( 1.0, 7.0, 9.0, 1.0, 65.0, 2.0 ) 0.3333333333333333, 0.3333333333333333, 0.3333333333333333;
    ( 1.0, 7.0, 9.0, 2.0, 1.0, 1.0 ) 0.3333333333333333, 0.3333333333333333, 0.3333333333333333;
    ( 1.0, 7.0, 9.0, 2.0, 1.0, 2.0 ) 0.3333333333333333, 0.3333333333333333, 0.3333333333333333;
    ( 1.0, 7.0, 9.0, 2.0, 2.0, 1.0 ) 0.3333333333333333, 0.3333333333333333, 0.3333333333333333;
    ( 1.0, 7.0, 9.0, 2.0, 2.0, 2.0 ) 0.3333333333333333, 0.3333333333333333, 0.3333333333333333;
    ( 1.0, 7.0, 9.0, 2.0, 9.0, 1.0 ) 0.3333333333333333, 0.3333333333333333, 0.3333333333333333;
    ( 1.0, 7.0, 9.0, 2.0, 9.0, 2.0 ) 0.3333333333333333, 0.3333333333333333, 0.3333333333333333;
    ( 1.0, 7.0, 9.0, 2.0, 65.0, 1.0 ) 0.3333333333333333, 0.3333333333333333, 0.3333333333333333;
    ( 1.0, 7.0, 9.0, 2.0, 65.0, 2.0 ) 0.3333333333333333, 0.3333333333333333, 0.3333333333333333;
    ( 1.0, 7.0, 9.0, 9.0, 1.0, 1.0 ) 0.3333333333333333, 0.3333333333333333, 0.3333333333333333;
    ( 1.0, 7.0, 9.0, 9.0, 1.0, 2.0 ) 0.3333333333333333, 0.3333333333333333, 0.3333333333333333;
    ( 1.0, 7.0, 9.0, 9.0, 2.0, 1.0 ) 0.3333333333333333, 0.3333333333333333, 0.3333333333333333;
    ( 1.0, 7.0, 9.0, 9.0, 2.0, 2.0 ) 0.3333333333333333, 0.3333333333333333, 0.3333333333333333;
    ( 1.0, 7.0, 9.0, 9.0, 9.0, 1.0 ) 0.3333333333333333, 0.3333333333333333, 0.3333333333333333;
    ( 1.0, 7.0, 9.0, 9.0, 9.0, 2.0 ) 0.3333333333333333, 0.3333333333333333, 0.3333333333333333;
    ( 1.0, 7.0, 9.0, 9.0, 65.0, 1.0 ) 0.3333333333333333, 0.3333333333333333, 0.3333333333333333;
    ( 1.0, 7.0, 9.0, 9.0, 65.0, 2.0 ) 0.3333333333333333, 0.3333333333333333, 0.3333333333333333;
    ( 1.0, 9.0, 1.0, 1.0, 1.0, 1.0 ) 0.3333333333333333, 0.3333333333333333, 0.3333333333333333;
    ( 1.0, 9.0, 1.0, 1.0, 1.0, 2.0 ) 0.3333333333333333, 0.3333333333333333, 0.3333333333333333;
    ( 1.0, 9.0, 1.0, 1.0, 2.0, 1.0 ) 0.3333333333333333, 0.3333333333333333, 0.3333333333333333;
    ( 1.0, 9.0, 1.0, 1.0, 2.0, 2.0 ) 0.3333333333333333, 0.3333333333333333, 0.3333333333333333;
    ( 1.0, 9.0, 1.0, 1.0, 9.0, 1.0 ) 0.3333333333333333, 0.3333333333333333, 0.3333333333333333;
    ( 1.0, 9.0, 1.0, 1.0, 9.0, 2.0 ) 0.3333333333333333, 0.3333333333333333, 0.3333333333333333;
    ( 1.0, 9.0, 1.0, 1.0, 65.0, 1.0 ) 0.3333333333333333, 0.3333333333333333, 0.3333333333333333;
    ( 1.0, 9.0, 1.0, 1.0, 65.0, 2.0 ) 0.3333333333333333, 0.3333333333333333, 0.3333333333333333;
    ( 1.0, 9.0, 1.0, 2.0, 1.0, 1.0 ) 0.3333333333333333, 0.3333333333333333, 0.3333333333333333;
    ( 1.0, 9.0, 1.0, 2.0, 1.0, 2.0 ) 0.3333333333333333, 0.3333333333333333, 0.3333333333333333;
    ( 1.0, 9.0, 1.0, 2.0, 2.0, 1.0 ) 0.3333333333333333, 0.3333333333333333, 0.3333333333333333;
    ( 1.0, 9.0, 1.0, 2.0, 2.0, 2.0 ) 0.3333333333333333, 0.3333333333333333, 0.3333333333333333;
    ( 1.0, 9.0, 1.0, 2.0, 9.0, 1.0 ) 0.3333333333333333, 0.3333333333333333, 0.3333333333333333;
    ( 1.0, 9.0, 1.0, 2.0, 9.0, 2.0 ) 0.3333333333333333, 0.3333333333333333, 0.3333333333333333;
    ( 1.0, 9.0, 1.0, 2.0, 65.0, 1.0 ) 0.2500602380608164, 0.7496988096959183, 0.0002409522432653848;
    ( 1.0, 9.0, 1.0, 2.0, 65.0, 2.0 ) 0.0002409522432653848, 0.9995180955134693, 0.0002409522432653848;
    ( 1.0, 9.0, 1.0, 9.0, 1.0, 1.0 ) 0.3333333333333333, 0.3333333333333333, 0.3333333333333333;
    ( 1.0, 9.0, 1.0, 9.0, 1.0, 2.0 ) 0.3333333333333333, 0.3333333333333333, 0.3333333333333333;
    ( 1.0, 9.0, 1.0, 9.0, 2.0, 1.0 ) 0.3333333333333333, 0.3333333333333333, 0.3333333333333333;
    ( 1.0, 9.0, 1.0, 9.0, 2.0, 2.0 ) 0.3333333333333333, 0.3333333333333333, 0.3333333333333333;
    ( 1.0, 9.0, 1.0, 9.0, 9.0, 1.0 ) 0.3333333333333333, 0.3333333333333333, 0.3333333333333333;
    ( 1.0, 9.0, 1.0, 9.0, 9.0, 2.0 ) 0.3333333333333333, 0.3333333333333333, 0.3333333333333333;
    ( 1.0, 9.0, 1.0, 9.0, 65.0, 1.0 ) 0.0009617234083477589, 0.9980765531833042, 0.0009617234083477589;
    ( 1.0, 9.0, 1.0, 9.0, 65.0, 2.0 ) 0.3333333333333333, 0.3333333333333333, 0.3333333333333333;
    ( 1.0, 9.0, 2.0, 1.0, 1.0, 1.0 ) 0.3333333333333333, 0.3333333333333333, 0.3333333333333333;
    ( 1.0, 9.0, 2.0, 1.0, 1.0, 2.0 ) 0.3333333333333333, 0.3333333333333333, 0.3333333333333333;
    ( 1.0, 9.0, 2.0, 1.0, 2.0, 1.0 ) 0.3333333333333333, 0.3333333333333333, 0.3333333333333333;
    ( 1.0, 9.0, 2.0, 1.0, 2.0, 2.0 ) 0.3333333333333333, 0.3333333333333333, 0.3333333333333333;
    ( 1.0, 9.0, 2.0, 1.0, 9.0, 1.0 ) 0.3333333333333333, 0.3333333333333333, 0.3333333333333333;
    ( 1.0, 9.0, 2.0, 1.0, 9.0, 2.0 ) 0.3333333333333333, 0.3333333333333333, 0.3333333333333333;
    ( 1.0, 9.0, 2.0, 1.0, 65.0, 1.0 ) 0.3333333333333333, 0.3333333333333333, 0.3333333333333333;
    ( 1.0, 9.0, 2.0, 1.0, 65.0, 2.0 ) 0.3333333333333333, 0.3333333333333333, 0.3333333333333333;
    ( 1.0, 9.0, 2.0, 2.0, 1.0, 1.0 ) 0.3333333333333333, 0.3333333333333333, 0.3333333333333333;
    ( 1.0, 9.0, 2.0, 2.0, 1.0, 2.0 ) 0.3333333333333333, 0.3333333333333333, 0.3333333333333333;
    ( 1.0, 9.0, 2.0, 2.0, 2.0, 1.0 ) 0.3333333333333333, 0.3333333333333333, 0.3333333333333333;
    ( 1.0, 9.0, 2.0, 2.0, 2.0, 2.0 ) 0.3333333333333333, 0.3333333333333333, 0.3333333333333333;
    ( 1.0, 9.0, 2.0, 2.0, 9.0, 1.0 ) 0.3333333333333333, 0.3333333333333333, 0.3333333333333333;
    ( 1.0, 9.0, 2.0, 2.0, 9.0, 2.0 ) 0.3333333333333333, 0.3333333333333333, 0.3333333333333333;
    ( 1.0, 9.0, 2.0, 2.0, 65.0, 1.0 ) 0.3333333333333333, 0.3333333333333333, 0.3333333333333333;
    ( 1.0, 9.0, 2.0, 2.0, 65.0, 2.0 ) 0.3333333333333333, 0.3333333333333333, 0.3333333333333333;
    ( 1.0, 9.0, 2.0, 9.0, 1.0, 1.0 ) 0.3333333333333333, 0.3333333333333333, 0.3333333333333333;
    ( 1.0, 9.0, 2.0, 9.0, 1.0, 2.0 ) 0.3333333333333333, 0.3333333333333333, 0.3333333333333333;
    ( 1.0, 9.0, 2.0, 9.0, 2.0, 1.0 ) 0.3333333333333333, 0.3333333333333333, 0.3333333333333333;
    ( 1.0, 9.0, 2.0, 9.0, 2.0, 2.0 ) 0.3333333333333333, 0.3333333333333333, 0.3333333333333333;
    ( 1.0, 9.0, 2.0, 9.0, 9.0, 1.0 ) 0.3333333333333333, 0.3333333333333333, 0.3333333333333333;
    ( 1.0, 9.0, 2.0, 9.0, 9.0, 2.0 ) 0.3333333333333333, 0.3333333333333333, 0.3333333333333333;
    ( 1.0, 9.0, 2.0, 9.0, 65.0, 1.0 ) 0.3333333333333333, 0.3333333333333333, 0.3333333333333333;
    ( 1.0, 9.0, 2.0, 9.0, 65.0, 2.0 ) 0.3333333333333333, 0.3333333333333333, 0.3333333333333333;
    ( 1.0, 9.0, 9.0, 1.0, 1.0, 1.0 ) 0.3333333333333333, 0.3333333333333333, 0.3333333333333333;
    ( 1.0, 9.0, 9.0, 1.0, 1.0, 2.0 ) 0.3333333333333333, 0.3333333333333333, 0.3333333333333333;
    ( 1.0, 9.0, 9.0, 1.0, 2.0, 1.0 ) 0.3333333333333333, 0.3333333333333333, 0.3333333333333333;
    ( 1.0, 9.0, 9.0, 1.0, 2.0, 2.0 ) 0.3333333333333333, 0.3333333333333333, 0.3333333333333333;
    ( 1.0, 9.0, 9.0, 1.0, 9.0, 1.0 ) 0.3333333333333333, 0.3333333333333333, 0.3333333333333333;
    ( 1.0, 9.0, 9.0, 1.0, 9.0, 2.0 ) 0.3333333333333333, 0.3333333333333333, 0.3333333333333333;
    ( 1.0, 9.0, 9.0, 1.0, 65.0, 1.0 ) 0.3333333333333333, 0.3333333333333333, 0.3333333333333333;
    ( 1.0, 9.0, 9.0, 1.0, 65.0, 2.0 ) 0.3333333333333333, 0.3333333333333333, 0.3333333333333333;
    ( 1.0, 9.0, 9.0, 2.0, 1.0, 1.0 ) 0.3333333333333333, 0.3333333333333333, 0.3333333333333333;
    ( 1.0, 9.0, 9.0, 2.0, 1.0, 2.0 ) 0.3333333333333333, 0.3333333333333333, 0.3333333333333333;
    ( 1.0, 9.0, 9.0, 2.0, 2.0, 1.0 ) 0.3333333333333333, 0.3333333333333333, 0.3333333333333333;
    ( 1.0, 9.0, 9.0, 2.0, 2.0, 2.0 ) 0.3333333333333333, 0.3333333333333333, 0.3333333333333333;
    ( 1.0, 9.0, 9.0, 2.0, 9.0, 1.0 ) 0.3333333333333333, 0.3333333333333333, 0.3333333333333333;
    ( 1.0, 9.0, 9.0, 2.0, 9.0, 2.0 ) 0.3333333333333333, 0.3333333333333333, 0.3333333333333333;
    ( 1.0, 9.0, 9.0, 2.0, 65.0, 1.0 ) 0.3333333333333333, 0.3333333333333333, 0.3333333333333333;
    ( 1.0, 9.0, 9.0, 2.0, 65.0, 2.0 ) 0.3333333333333333, 0.3333333333333333, 0.3333333333333333;
    ( 1.0, 9.0, 9.0, 9.0, 1.0, 1.0 ) 0.3333333333333333, 0.3333333333333333, 0.3333333333333333;
    ( 1.0, 9.0, 9.0, 9.0, 1.0, 2.0 ) 0.3333333333333333, 0.3333333333333333, 0.3333333333333333;
    ( 1.0, 9.0, 9.0, 9.0, 2.0, 1.0 ) 0.3333333333333333, 0.3333333333333333, 0.3333333333333333;
    ( 1.0, 9.0, 9.0, 9.0, 2.0, 2.0 ) 0.3333333333333333, 0.3333333333333333, 0.3333333333333333;
    ( 1.0, 9.0, 9.0, 9.0, 9.0, 1.0 ) 0.3333333333333333, 0.3333333333333333, 0.3333333333333333;
    ( 1.0, 9.0, 9.0, 9.0, 9.0, 2.0 ) 0.3333333333333333, 0.3333333333333333, 0.3333333333333333;
    ( 1.0, 9.0, 9.0, 9.0, 65.0, 1.0 ) 0.3333333333333333, 0.3333333333333333, 0.3333333333333333;
    ( 1.0, 9.0, 9.0, 9.0, 65.0, 2.0 ) 0.3333333333333333, 0.3333333333333333, 0.3333333333333333;
    ( 2.0, 1.0, 1.0, 1.0, 1.0, 1.0 ) 0.3333333333333333, 0.3333333333333333, 0.3333333333333333;
    ( 2.0, 1.0, 1.0, 1.0, 1.0, 2.0 ) 0.3333333333333333, 0.3333333333333333, 0.3333333333333333;
    ( 2.0, 1.0, 1.0, 1.0, 2.0, 1.0 ) 0.3333333333333333, 0.3333333333333333, 0.3333333333333333;
    ( 2.0, 1.0, 1.0, 1.0, 2.0, 2.0 ) 0.3333333333333333, 0.3333333333333333, 0.3333333333333333;
    ( 2.0, 1.0, 1.0, 1.0, 9.0, 1.0 ) 0.3333333333333333, 0.3333333333333333, 0.3333333333333333;
    ( 2.0, 1.0, 1.0, 1.0, 9.0, 2.0 ) 0.3333333333333333, 0.3333333333333333, 0.3333333333333333;
    ( 2.0, 1.0, 1.0, 1.0, 65.0, 1.0 ) 0.16049506200182417, 0.8271569657090736, 0.012347972289102109;
    ( 2.0, 1.0, 1.0, 1.0, 65.0, 2.0 ) 0.23410487606756833, 0.7601120378841475, 0.005783086048284;
    ( 2.0, 1.0, 1.0, 2.0, 1.0, 1.0 ) 0.3333333333333333, 0.3333333333333333, 0.3333333333333333;
    ( 2.0, 1.0, 1.0, 2.0, 1.0, 2.0 ) 0.3333333333333333, 0.3333333333333333, 0.3333333333333333;
    ( 2.0, 1.0, 1.0, 2.0, 2.0, 1.0 ) 0.3333333333333333, 0.3333333333333333, 0.3333333333333333;
    ( 2.0, 1.0, 1.0, 2.0, 2.0, 2.0 ) 0.3333333333333333, 0.3333333333333333, 0.3333333333333333;
    ( 2.0, 1.0, 1.0, 2.0, 9.0, 1.0 ) 0.9980765531833042, 0.0009617234083477589, 0.0009617234083477589;
    ( 2.0, 1.0, 1.0, 2.0, 9.0, 2.0 ) 0.49975922180487337, 0.49975922180487337, 0.0004815563902532986;
    ( 2.0, 1.0, 1.0, 2.0, 65.0, 1.0 ) 0.09772778918864021, 0.8984836096418257, 0.0037886011695342403;
    ( 2.0, 1.0, 1.0, 2.0, 65.0, 2.0 ) 0.1318121877061195, 0.859672505799679, 0.00851530649420157;
    ( 2.0, 1.0, 1.0, 9.0, 1.0, 1.0 ) 0.3333333333333333, 0.3333333333333333, 0.3333333333333333;
    ( 2.0, 1.0, 1.0, 9.0, 1.0, 2.0 ) 0.3333333333333333, 0.3333333333333333, 0.3333333333333333;
    ( 2.0, 1.0, 1.0, 9.0, 2.0, 1.0 ) 0.3333333333333333, 0.3333333333333333, 0.3333333333333333;
    ( 2.0, 1.0, 1.0, 9.0, 2.0, 2.0 ) 0.3333333333333333, 0.3333333333333333, 0.3333333333333333;
    ( 2.0, 1.0, 1.0, 9.0, 9.0, 1.0 ) 0.3333333333333333, 0.3333333333333333, 0.3333333333333333;
    ( 2.0, 1.0, 1.0, 9.0, 9.0, 2.0 ) 0.9980765531833042, 0.0009617234083477589, 0.0009617234083477589;
    ( 2.0, 1.0, 1.0, 9.0, 65.0, 1.0 ) 0.16674700343841387, 0.8330923230180919, 0.00016067354349432822;
    ( 2.0, 1.0, 1.0, 9.0, 65.0, 2.0 ) 0.0009617234083477589, 0.9980765531833042, 0.0009617234083477589;
    ( 2.0, 1.0, 2.0, 1.0, 1.0, 1.0 ) 0.3333333333333333, 0.3333333333333333, 0.3333333333333333;
    ( 2.0, 1.0, 2.0, 1.0, 1.0, 2.0 ) 0.3333333333333333, 0.3333333333333333, 0.3333333333333333;
    ( 2.0, 1.0, 2.0, 1.0, 2.0, 1.0 ) 0.3333333333333333, 0.3333333333333333, 0.3333333333333333;
    ( 2.0, 1.0, 2.0, 1.0, 2.0, 2.0 ) 0.3333333333333333, 0.3333333333333333, 0.3333333333333333;
    ( 2.0, 1.0, 2.0, 1.0, 9.0, 1.0 ) 0.3333333333333333, 0.3333333333333333, 0.3333333333333333;
    ( 2.0, 1.0, 2.0, 1.0, 9.0, 2.0 ) 0.0009617234083477589, 0.9980765531833042, 0.0009617234083477589;
    ( 2.0, 1.0, 2.0, 1.0, 65.0, 1.0 ) 0.34554955315257446, 0.6387388288143622, 0.01571161803306338;
    ( 2.0, 1.0, 2.0, 1.0, 65.0, 2.0 ) 0.45606545971681794, 0.5271943056890648, 0.01674023459411731;
    ( 2.0, 1.0, 2.0, 2.0, 1.0, 1.0 ) 0.3333333333333333, 0.3333333333333333, 0.3333333333333333;
    ( 2.0, 1.0, 2.0, 2.0, 1.0, 2.0 ) 0.3333333333333333, 0.3333333333333333, 0.3333333333333333;
    ( 2.0, 1.0, 2.0, 2.0, 2.0, 1.0 ) 0.3333333333333333, 0.3333333333333333, 0.3333333333333333;
    ( 2.0, 1.0, 2.0, 2.0, 2.0, 2.0 ) 0.3333333333333333, 0.3333333333333333, 0.3333333333333333;
    ( 2.0, 1.0, 2.0, 2.0, 9.0, 1.0 ) 0.3333333333333333, 0.3333333333333333, 0.3333333333333333;
    ( 2.0, 1.0, 2.0, 2.0, 9.0, 2.0 ) 0.3333333333333333, 0.3333333333333333, 0.3333333333333333;
    ( 2.0, 1.0, 2.0, 2.0, 65.0, 1.0 ) 0.25886601231408646, 0.7304923787693164, 0.010641608916597064;
    ( 2.0, 1.0, 2.0, 2.0, 65.0, 2.0 ) 0.3641789712650379, 0.6253718731060851, 0.0104491556288769;
    ( 2.0, 1.0, 2.0, 9.0, 1.0, 1.0 ) 0.3333333333333333, 0.3333333333333333, 0.3333333333333333;
    ( 2.0, 1.0, 2.0, 9.0, 1.0, 2.0 ) 0.3333333333333333, 0.3333333333333333, 0.3333333333333333;
    ( 2.0, 1.0, 2.0, 9.0, 2.0, 1.0 ) 0.3333333333333333, 0.3333333333333333, 0.3333333333333333;
    ( 2.0, 1.0, 2.0, 9.0, 2.0, 2.0 ) 0.3333333333333333, 0.3333333333333333, 0.3333333333333333;
    ( 2.0, 1.0, 2.0, 9.0, 9.0, 1.0 ) 0.3333333333333333, 0.3333333333333333, 0.3333333333333333;
    ( 2.0, 1.0, 2.0, 9.0, 9.0, 2.0 ) 0.3333333333333333, 0.3333333333333333, 0.3333333333333333;
    ( 2.0, 1.0, 2.0, 9.0, 65.0, 1.0 ) 0.0004815563902532987, 0.9990368872194936, 0.0004815563902532987;
    ( 2.0, 1.0, 2.0, 9.0, 65.0, 2.0 ) 0.2500602380608164, 0.4998795238783673, 0.2500602380608164;
    ( 2.0, 1.0, 9.0, 1.0, 1.0, 1.0 ) 0.3333333333333333, 0.3333333333333333, 0.3333333333333333;
    ( 2.0, 1.0, 9.0, 1.0, 1.0, 2.0 ) 0.3333333333333333, 0.3333333333333333, 0.3333333333333333;
    ( 2.0, 1.0, 9.0, 1.0, 2.0, 1.0 ) 0.3333333333333333, 0.3333333333333333, 0.3333333333333333;
    ( 2.0, 1.0, 9.0, 1.0, 2.0, 2.0 ) 0.3333333333333333, 0.3333333333333333, 0.3333333333333333;
    ( 2.0, 1.0, 9.0, 1.0, 9.0, 1.0 ) 0.3333333333333333, 0.3333333333333333, 0.3333333333333333;
    ( 2.0, 1.0, 9.0, 1.0, 9.0, 2.0 ) 0.3333333333333333, 0.3333333333333333, 0.3333333333333333;
    ( 2.0, 1.0, 9.0, 1.0, 65.0, 1.0 ) 0.3333333333333333, 0.3333333333333333, 0.3333333333333333;
    ( 2.0, 1.0, 9.0, 1.0, 65.0, 2.0 ) 0.0009617234083477589, 0.9980765531833042, 0.0009617234083477589;
    ( 2.0, 1.0, 9.0, 2.0, 1.0, 1.0 ) 0.3333333333333333, 0.3333333333333333, 0.3333333333333333;
    ( 2.0, 1.0, 9.0, 2.0, 1.0, 2.0 ) 0.3333333333333333, 0.3333333333333333, 0.3333333333333333;
    ( 2.0, 1.0, 9.0, 2.0, 2.0, 1.0 ) 0.3333333333333333, 0.3333333333333333, 0.3333333333333333;
    ( 2.0, 1.0, 9.0, 2.0, 2.0, 2.0 ) 0.3333333333333333, 0.3333333333333333, 0.3333333333333333;
    ( 2.0, 1.0, 9.0, 2.0, 9.0, 1.0 ) 0.3333333333333333, 0.3333333333333333, 0.3333333333333333;
    ( 2.0, 1.0, 9.0, 2.0, 9.0, 2.0 ) 0.3333333333333333, 0.3333333333333333, 0.3333333333333333;
    ( 2.0, 1.0, 9.0, 2.0, 65.0, 1.0 ) 0.39996144206670525, 0.5998457682668209, 0.000192789666473877;
    ( 2.0, 1.0, 9.0, 2.0, 65.0, 2.0 ) 0.25003012992021595, 0.624894545279244, 0.12507532480053993;
    ( 2.0, 1.0, 9.0, 9.0, 1.0, 1.0 ) 0.3333333333333333, 0.3333333333333333, 0.3333333333333333;
    ( 2.0, 1.0, 9.0, 9.0, 1.0, 2.0 ) 0.3333333333333333, 0.3333333333333333, 0.3333333333333333;
    ( 2.0, 1.0, 9.0, 9.0, 2.0, 1.0 ) 0.3333333333333333, 0.3333333333333333, 0.3333333333333333;
    ( 2.0, 1.0, 9.0, 9.0, 2.0, 2.0 ) 0.3333333333333333, 0.3333333333333333, 0.3333333333333333;
    ( 2.0, 1.0, 9.0, 9.0, 9.0, 1.0 ) 0.3333333333333333, 0.3333333333333333, 0.3333333333333333;
    ( 2.0, 1.0, 9.0, 9.0, 9.0, 2.0 ) 0.3333333333333333, 0.3333333333333333, 0.3333333333333333;
    ( 2.0, 1.0, 9.0, 9.0, 65.0, 1.0 ) 0.0009617234083477589, 0.9980765531833042, 0.0009617234083477589;
    ( 2.0, 1.0, 9.0, 9.0, 65.0, 2.0 ) 0.3333333333333333, 0.3333333333333333, 0.3333333333333333;
    ( 2.0, 2.0, 1.0, 1.0, 1.0, 1.0 ) 0.3333333333333333, 0.3333333333333333, 0.3333333333333333;
    ( 2.0, 2.0, 1.0, 1.0, 1.0, 2.0 ) 0.3333333333333333, 0.3333333333333333, 0.3333333333333333;
    ( 2.0, 2.0, 1.0, 1.0, 2.0, 1.0 ) 0.3333333333333333, 0.3333333333333333, 0.3333333333333333;
    ( 2.0, 2.0, 1.0, 1.0, 2.0, 2.0 ) 0.3333333333333333, 0.3333333333333333, 0.3333333333333333;
    ( 2.0, 2.0, 1.0, 1.0, 9.0, 1.0 ) 0.0009617234083477589, 0.9980765531833042, 0.0009617234083477589;
    ( 2.0, 2.0, 1.0, 1.0, 9.0, 2.0 ) 0.3333333333333333, 0.3333333333333333, 0.3333333333333333;
    ( 2.0, 2.0, 1.0, 1.0, 65.0, 1.0 ) 0.07427915873422439, 0.9232647593753801, 0.0024560818903955847;
    ( 2.0, 2.0, 1.0, 1.0, 65.0, 2.0 ) 0.08605047655479191, 0.9126444898988794, 0.001305033546328691;
    ( 2.0, 2.0, 1.0, 2.0, 1.0, 1.0 ) 0.3333333333333333, 0.3333333333333333, 0.3333333333333333;
    ( 2.0, 2.0, 1.0, 2.0, 1.0, 2.0 ) 0.3333333333333333, 0.3333333333333333, 0.3333333333333333;
    ( 2.0, 2.0, 1.0, 2.0, 2.0, 1.0 ) 0.3333333333333333, 0.3333333333333333, 0.3333333333333333;
    ( 2.0, 2.0, 1.0, 2.0, 2.0, 2.0 ) 0.3333333333333333, 0.3333333333333333, 0.3333333333333333;
    ( 2.0, 2.0, 1.0, 2.0, 9.0, 1.0 ) 0.00016067354349432822, 0.8330923230180919, 0.16674700343841387;
    ( 2.0, 2.0, 1.0, 2.0, 9.0, 2.0 ) 4.821833261005835e-05, 0.99990356333478, 4.821833261005835e-05;
    ( 2.0, 2.0, 1.0, 2.0, 65.0, 1.0 ) 0.031352913508769384, 0.9659047687059267, 0.00274231778530398;
    ( 2.0, 2.0, 1.0, 2.0, 65.0, 2.0 ) 0.04326376372114422, 0.9545976478335418, 0.0021385884453139965;
    ( 2.0, 2.0, 1.0, 9.0, 1.0, 1.0 ) 0.3333333333333333, 0.3333333333333333, 0.3333333333333333;
    ( 2.0, 2.0, 1.0, 9.0, 1.0, 2.0 ) 0.3333333333333333, 0.3333333333333333, 0.3333333333333333;
    ( 2.0, 2.0, 1.0, 9.0, 2.0, 1.0 ) 0.3333333333333333, 0.3333333333333333, 0.3333333333333333;
    ( 2.0, 2.0, 1.0, 9.0, 2.0, 2.0 ) 0.3333333333333333, 0.3333333333333333, 0.3333333333333333;
    ( 2.0, 2.0, 1.0, 9.0, 9.0, 1.0 ) 0.3333333333333333, 0.3333333333333333, 0.3333333333333333;
    ( 2.0, 2.0, 1.0, 9.0, 9.0, 2.0 ) 0.3333333333333333, 0.3333333333333333, 0.3333333333333333;
    ( 2.0, 2.0, 1.0, 9.0, 65.0, 1.0 ) 4.383542428307164e-05, 0.9999123291514339, 4.383542428307164e-05;
    ( 2.0, 2.0, 1.0, 9.0, 65.0, 2.0 ) 9.642271719217044e-05, 0.9998071545656155, 9.642271719217044e-05;
    ( 2.0, 2.0, 2.0, 1.0, 1.0, 1.0 ) 0.3333333333333333, 0.3333333333333333, 0.3333333333333333;
    ( 2.0, 2.0, 2.0, 1.0, 1.0, 2.0 ) 0.3333333333333333, 0.3333333333333333, 0.3333333333333333;
    ( 2.0, 2.0, 2.0, 1.0, 2.0, 1.0 ) 0.3333333333333333, 0.3333333333333333, 0.3333333333333333;
    ( 2.0, 2.0, 2.0, 1.0, 2.0, 2.0 ) 0.3333333333333333, 0.3333333333333333, 0.3333333333333333;
    ( 2.0, 2.0, 2.0, 1.0, 9.0, 1.0 ) 0.49975922180487337, 0.49975922180487337, 0.0004815563902532986;
    ( 2.0, 2.0, 2.0, 1.0, 9.0, 2.0 ) 0.9980765531833042, 0.0009617234083477589, 0.0009617234083477589;
    ( 2.0, 2.0, 2.0, 1.0, 65.0, 1.0 ) 0.18534667328509202, 0.8060285872738324, 0.008624739441075644;
    ( 2.0, 2.0, 2.0, 1.0, 65.0, 2.0 ) 0.2512088774330144, 0.7294630617936955, 0.01932806077329017;
    ( 2.0, 2.0, 2.0, 2.0, 1.0, 1.0 ) 0.3333333333333333, 0.3333333333333333, 0.3333333333333333;
    ( 2.0, 2.0, 2.0, 2.0, 1.0, 2.0 ) 0.3333333333333333, 0.3333333333333333, 0.3333333333333333;
    ( 2.0, 2.0, 2.0, 2.0, 2.0, 1.0 ) 0.3333333333333333, 0.3333333333333333, 0.3333333333333333;
    ( 2.0, 2.0, 2.0, 2.0, 2.0, 2.0 ) 0.3333333333333333, 0.3333333333333333, 0.3333333333333333;
    ( 2.0, 2.0, 2.0, 2.0, 9.0, 1.0 ) 0.49975922180487337, 0.49975922180487337, 0.0004815563902532986;
    ( 2.0, 2.0, 2.0, 2.0, 9.0, 2.0 ) 0.0009617234083477589, 0.9980765531833042, 0.0009617234083477589;
    ( 2.0, 2.0, 2.0, 2.0, 65.0, 1.0 ) 0.07278600300399565, 0.9129720297542687, 0.014241967241735577;
    ( 2.0, 2.0, 2.0, 2.0, 65.0, 2.0 ) 0.13965818234866395, 0.8537529567275128, 0.006588860923823109;
    ( 2.0, 2.0, 2.0, 9.0, 1.0, 1.0 ) 0.3333333333333333, 0.3333333333333333, 0.3333333333333333;
    ( 2.0, 2.0, 2.0, 9.0, 1.0, 2.0 ) 0.3333333333333333, 0.3333333333333333, 0.3333333333333333;
    ( 2.0, 2.0, 2.0, 9.0, 2.0, 1.0 ) 0.3333333333333333, 0.3333333333333333, 0.3333333333333333;
    ( 2.0, 2.0, 2.0, 9.0, 2.0, 2.0 ) 0.3333333333333333, 0.3333333333333333, 0.3333333333333333;
    ( 2.0, 2.0, 2.0, 9.0, 9.0, 1.0 ) 0.3333333333333333, 0.3333333333333333, 0.3333333333333333;
    ( 2.0, 2.0, 2.0, 9.0, 9.0, 2.0 ) 0.3333333333333333, 0.3333333333333333, 0.3333333333333333;
    ( 2.0, 2.0, 2.0, 9.0, 65.0, 1.0 ) 0.000192789666473877, 0.9996144206670523, 0.000192789666473877;
    ( 2.0, 2.0, 2.0, 9.0, 65.0, 2.0 ) 0.0004815563902532987, 0.9990368872194936, 0.0004815563902532987;
    ( 2.0, 2.0, 9.0, 1.0, 1.0, 1.0 ) 0.3333333333333333, 0.3333333333333333, 0.3333333333333333;
    ( 2.0, 2.0, 9.0, 1.0, 1.0, 2.0 ) 0.3333333333333333, 0.3333333333333333, 0.3333333333333333;
    ( 2.0, 2.0, 9.0, 1.0, 2.0, 1.0 ) 0.3333333333333333, 0.3333333333333333, 0.3333333333333333;
    ( 2.0, 2.0, 9.0, 1.0, 2.0, 2.0 ) 0.3333333333333333, 0.3333333333333333, 0.3333333333333333;
    ( 2.0, 2.0, 9.0, 1.0, 9.0, 1.0 ) 0.3333333333333333, 0.3333333333333333, 0.3333333333333333;
    ( 2.0, 2.0, 9.0, 1.0, 9.0, 2.0 ) 0.3333333333333333, 0.3333333333333333, 0.3333333333333333;
    ( 2.0, 2.0, 9.0, 1.0, 65.0, 1.0 ) 0.0003211922656902422, 0.9993576154686196, 0.0003211922656902422;
    ( 2.0, 2.0, 9.0, 1.0, 65.0, 2.0 ) 0.0004815563902532987, 0.9990368872194936, 0.0004815563902532987;
    ( 2.0, 2.0, 9.0, 2.0, 1.0, 1.0 ) 0.3333333333333333, 0.3333333333333333, 0.3333333333333333;
    ( 2.0, 2.0, 9.0, 2.0, 1.0, 2.0 ) 0.3333333333333333, 0.3333333333333333, 0.3333333333333333;
    ( 2.0, 2.0, 9.0, 2.0, 2.0, 1.0 ) 0.3333333333333333, 0.3333333333333333, 0.3333333333333333;
    ( 2.0, 2.0, 9.0, 2.0, 2.0, 2.0 ) 0.3333333333333333, 0.3333333333333333, 0.3333333333333333;
    ( 2.0, 2.0, 9.0, 2.0, 9.0, 1.0 ) 0.3333333333333333, 0.3333333333333333, 0.3333333333333333;
    ( 2.0, 2.0, 9.0, 2.0, 9.0, 2.0 ) 0.3333333333333333, 0.3333333333333333, 0.3333333333333333;
    ( 2.0, 2.0, 9.0, 2.0, 65.0, 1.0 ) 0.1250376692100917, 0.8749020600537615, 6.027073614677129e-05;
    ( 2.0, 2.0, 9.0, 2.0, 65.0, 2.0 ) 0.06671809707489552, 0.9332176149148182, 6.428801028608163e-05;
    ( 2.0, 2.0, 9.0, 9.0, 1.0, 1.0 ) 0.3333333333333333, 0.3333333333333333, 0.3333333333333333;
    ( 2.0, 2.0, 9.0, 9.0, 1.0, 2.0 ) 0.3333333333333333, 0.3333333333333333, 0.3333333333333333;
    ( 2.0, 2.0, 9.0, 9.0, 2.0, 1.0 ) 0.3333333333333333, 0.3333333333333333, 0.3333333333333333;
    ( 2.0, 2.0, 9.0, 9.0, 2.0, 2.0 ) 0.3333333333333333, 0.3333333333333333, 0.3333333333333333;
    ( 2.0, 2.0, 9.0, 9.0, 9.0, 1.0 ) 0.3333333333333333, 0.3333333333333333, 0.3333333333333333;
    ( 2.0, 2.0, 9.0, 9.0, 9.0, 2.0 ) 0.3333333333333333, 0.3333333333333333, 0.3333333333333333;
    ( 2.0, 2.0, 9.0, 9.0, 65.0, 1.0 ) 0.3333333333333333, 0.3333333333333333, 0.3333333333333333;
    ( 2.0, 2.0, 9.0, 9.0, 65.0, 2.0 ) 0.3333333333333333, 0.3333333333333333, 0.3333333333333333;
    ( 2.0, 7.0, 1.0, 1.0, 1.0, 1.0 ) 0.3333333333333333, 0.3333333333333333, 0.3333333333333333;
    ( 2.0, 7.0, 1.0, 1.0, 1.0, 2.0 ) 0.3333333333333333, 0.3333333333333333, 0.3333333333333333;
    ( 2.0, 7.0, 1.0, 1.0, 2.0, 1.0 ) 0.3333333333333333, 0.3333333333333333, 0.3333333333333333;
    ( 2.0, 7.0, 1.0, 1.0, 2.0, 2.0 ) 0.3333333333333333, 0.3333333333333333, 0.3333333333333333;
    ( 2.0, 7.0, 1.0, 1.0, 9.0, 1.0 ) 0.3333333333333333, 0.3333333333333333, 0.3333333333333333;
    ( 2.0, 7.0, 1.0, 1.0, 9.0, 2.0 ) 0.3333333333333333, 0.3333333333333333, 0.3333333333333333;
    ( 2.0, 7.0, 1.0, 1.0, 65.0, 1.0 ) 0.08339360043713738, 0.8332127991257251, 0.08339360043713738;
    ( 2.0, 7.0, 1.0, 1.0, 65.0, 2.0 ) 0.0003211922656902422, 0.9993576154686196, 0.0003211922656902422;
    ( 2.0, 7.0, 1.0, 2.0, 1.0, 1.0 ) 0.3333333333333333, 0.3333333333333333, 0.3333333333333333;
    ( 2.0, 7.0, 1.0, 2.0, 1.0, 2.0 ) 0.3333333333333333, 0.3333333333333333, 0.3333333333333333;
    ( 2.0, 7.0, 1.0, 2.0, 2.0, 1.0 ) 0.3333333333333333, 0.3333333333333333, 0.3333333333333333;
    ( 2.0, 7.0, 1.0, 2.0, 2.0, 2.0 ) 0.3333333333333333, 0.3333333333333333, 0.3333333333333333;
    ( 2.0, 7.0, 1.0, 2.0, 9.0, 1.0 ) 0.3333333333333333, 0.3333333333333333, 0.3333333333333333;
    ( 2.0, 7.0, 1.0, 2.0, 9.0, 2.0 ) 0.3333333333333333, 0.3333333333333333, 0.3333333333333333;
    ( 2.0, 7.0, 1.0, 2.0, 65.0, 1.0 ) 0.06251632529224783, 0.9166315044987481, 0.020852170209003925;
    ( 2.0, 7.0, 1.0, 2.0, 65.0, 2.0 ) 0.10418048037549175, 0.8749673494155042, 0.020852170209003925;
    ( 2.0, 7.0, 1.0, 9.0, 1.0, 1.0 ) 0.3333333333333333, 0.3333333333333333, 0.3333333333333333;
    ( 2.0, 7.0, 1.0, 9.0, 1.0, 2.0 ) 0.3333333333333333, 0.3333333333333333, 0.3333333333333333;
    ( 2.0, 7.0, 1.0, 9.0, 2.0, 1.0 ) 0.3333333333333333, 0.3333333333333333, 0.3333333333333333;
    ( 2.0, 7.0, 1.0, 9.0, 2.0, 2.0 ) 0.3333333333333333, 0.3333333333333333, 0.3333333333333333;
    ( 2.0, 7.0, 1.0, 9.0, 9.0, 1.0 ) 0.3333333333333333, 0.3333333333333333, 0.3333333333333333;
    ( 2.0, 7.0, 1.0, 9.0, 9.0, 2.0 ) 0.3333333333333333, 0.3333333333333333, 0.3333333333333333;
    ( 2.0, 7.0, 1.0, 9.0, 65.0, 1.0 ) 0.0009617234083477589, 0.9980765531833042, 0.0009617234083477589;
    ( 2.0, 7.0, 1.0, 9.0, 65.0, 2.0 ) 0.3333333333333333, 0.3333333333333333, 0.3333333333333333;
    ( 2.0, 7.0, 2.0, 1.0, 1.0, 1.0 ) 0.3333333333333333, 0.3333333333333333, 0.3333333333333333;
    ( 2.0, 7.0, 2.0, 1.0, 1.0, 2.0 ) 0.3333333333333333, 0.3333333333333333, 0.3333333333333333;
    ( 2.0, 7.0, 2.0, 1.0, 2.0, 1.0 ) 0.3333333333333333, 0.3333333333333333, 0.3333333333333333;
    ( 2.0, 7.0, 2.0, 1.0, 2.0, 2.0 ) 0.3333333333333333, 0.3333333333333333, 0.3333333333333333;
    ( 2.0, 7.0, 2.0, 1.0, 9.0, 1.0 ) 0.3333333333333333, 0.3333333333333333, 0.3333333333333333;
    ( 2.0, 7.0, 2.0, 1.0, 9.0, 2.0 ) 0.3333333333333333, 0.3333333333333333, 0.3333333333333333;
    ( 2.0, 7.0, 2.0, 1.0, 65.0, 1.0 ) 0.0003211922656902422, 0.9993576154686196, 0.0003211922656902422;
    ( 2.0, 7.0, 2.0, 1.0, 65.0, 2.0 ) 0.3333333333333334, 0.6663454744009765, 0.0003211922656902422;
    ( 2.0, 7.0, 2.0, 2.0, 1.0, 1.0 ) 0.3333333333333333, 0.3333333333333333, 0.3333333333333333;
    ( 2.0, 7.0, 2.0, 2.0, 1.0, 2.0 ) 0.3333333333333333, 0.3333333333333333, 0.3333333333333333;
    ( 2.0, 7.0, 2.0, 2.0, 2.0, 1.0 ) 0.3333333333333333, 0.3333333333333333, 0.3333333333333333;
    ( 2.0, 7.0, 2.0, 2.0, 2.0, 2.0 ) 0.3333333333333333, 0.3333333333333333, 0.3333333333333333;
    ( 2.0, 7.0, 2.0, 2.0, 9.0, 1.0 ) 0.3333333333333333, 0.3333333333333333, 0.3333333333333333;
    ( 2.0, 7.0, 2.0, 2.0, 9.0, 2.0 ) 0.3333333333333333, 0.3333333333333333, 0.3333333333333333;
    ( 2.0, 7.0, 2.0, 2.0, 65.0, 1.0 ) 8.035613840541277e-05, 0.9998392877231891, 8.035613840541277e-05;
    ( 2.0, 7.0, 2.0, 2.0, 65.0, 2.0 ) 0.00016067354349432822, 0.8330923230180919, 0.16674700343841387;
    ( 2.0, 7.0, 2.0, 9.0, 1.0, 1.0 ) 0.3333333333333333, 0.3333333333333333, 0.3333333333333333;
    ( 2.0, 7.0, 2.0, 9.0, 1.0, 2.0 ) 0.3333333333333333, 0.3333333333333333, 0.3333333333333333;
    ( 2.0, 7.0, 2.0, 9.0, 2.0, 1.0 ) 0.3333333333333333, 0.3333333333333333, 0.3333333333333333;
    ( 2.0, 7.0, 2.0, 9.0, 2.0, 2.0 ) 0.3333333333333333, 0.3333333333333333, 0.3333333333333333;
    ( 2.0, 7.0, 2.0, 9.0, 9.0, 1.0 ) 0.3333333333333333, 0.3333333333333333, 0.3333333333333333;
    ( 2.0, 7.0, 2.0, 9.0, 9.0, 2.0 ) 0.3333333333333333, 0.3333333333333333, 0.3333333333333333;
    ( 2.0, 7.0, 2.0, 9.0, 65.0, 1.0 ) 0.3333333333333333, 0.3333333333333333, 0.3333333333333333;
    ( 2.0, 7.0, 2.0, 9.0, 65.0, 2.0 ) 0.3333333333333333, 0.3333333333333333, 0.3333333333333333;
    ( 2.0, 7.0, 9.0, 1.0, 1.0, 1.0 ) 0.3333333333333333, 0.3333333333333333, 0.3333333333333333;
    ( 2.0, 7.0, 9.0, 1.0, 1.0, 2.0 ) 0.3333333333333333, 0.3333333333333333, 0.3333333333333333;
    ( 2.0, 7.0, 9.0, 1.0, 2.0, 1.0 ) 0.3333333333333333, 0.3333333333333333, 0.3333333333333333;
    ( 2.0, 7.0, 9.0, 1.0, 2.0, 2.0 ) 0.3333333333333333, 0.3333333333333333, 0.3333333333333333;
    ( 2.0, 7.0, 9.0, 1.0, 9.0, 1.0 ) 0.3333333333333333, 0.3333333333333333, 0.3333333333333333;
    ( 2.0, 7.0, 9.0, 1.0, 9.0, 2.0 ) 0.3333333333333333, 0.3333333333333333, 0.3333333333333333;
    ( 2.0, 7.0, 9.0, 1.0, 65.0, 1.0 ) 0.3333333333333333, 0.3333333333333333, 0.3333333333333333;
    ( 2.0, 7.0, 9.0, 1.0, 65.0, 2.0 ) 0.3333333333333333, 0.3333333333333333, 0.3333333333333333;
    ( 2.0, 7.0, 9.0, 2.0, 1.0, 1.0 ) 0.3333333333333333, 0.3333333333333333, 0.3333333333333333;
    ( 2.0, 7.0, 9.0, 2.0, 1.0, 2.0 ) 0.3333333333333333, 0.3333333333333333, 0.3333333333333333;
    ( 2.0, 7.0, 9.0, 2.0, 2.0, 1.0 ) 0.3333333333333333, 0.3333333333333333, 0.3333333333333333;
    ( 2.0, 7.0, 9.0, 2.0, 2.0, 2.0 ) 0.3333333333333333, 0.3333333333333333, 0.3333333333333333;
    ( 2.0, 7.0, 9.0, 2.0, 9.0, 1.0 ) 0.3333333333333333, 0.3333333333333333, 0.3333333333333333;
    ( 2.0, 7.0, 9.0, 2.0, 9.0, 2.0 ) 0.3333333333333333, 0.3333333333333333, 0.3333333333333333;
    ( 2.0, 7.0, 9.0, 2.0, 65.0, 1.0 ) 0.3333333333333333, 0.3333333333333333, 0.3333333333333333;
    ( 2.0, 7.0, 9.0, 2.0, 65.0, 2.0 ) 0.3333333333333333, 0.3333333333333333, 0.3333333333333333;
    ( 2.0, 7.0, 9.0, 9.0, 1.0, 1.0 ) 0.3333333333333333, 0.3333333333333333, 0.3333333333333333;
    ( 2.0, 7.0, 9.0, 9.0, 1.0, 2.0 ) 0.3333333333333333, 0.3333333333333333, 0.3333333333333333;
    ( 2.0, 7.0, 9.0, 9.0, 2.0, 1.0 ) 0.3333333333333333, 0.3333333333333333, 0.3333333333333333;
    ( 2.0, 7.0, 9.0, 9.0, 2.0, 2.0 ) 0.3333333333333333, 0.3333333333333333, 0.3333333333333333;
    ( 2.0, 7.0, 9.0, 9.0, 9.0, 1.0 ) 0.3333333333333333, 0.3333333333333333, 0.3333333333333333;
    ( 2.0, 7.0, 9.0, 9.0, 9.0, 2.0 ) 0.3333333333333333, 0.3333333333333333, 0.3333333333333333;
    ( 2.0, 7.0, 9.0, 9.0, 65.0, 1.0 ) 0.3333333333333333, 0.3333333333333333, 0.3333333333333333;
    ( 2.0, 7.0, 9.0, 9.0, 65.0, 2.0 ) 0.3333333333333333, 0.3333333333333333, 0.3333333333333333;
    ( 2.0, 9.0, 1.0, 1.0, 1.0, 1.0 ) 0.3333333333333333, 0.3333333333333333, 0.3333333333333333;
    ( 2.0, 9.0, 1.0, 1.0, 1.0, 2.0 ) 0.3333333333333333, 0.3333333333333333, 0.3333333333333333;
    ( 2.0, 9.0, 1.0, 1.0, 2.0, 1.0 ) 0.3333333333333333, 0.3333333333333333, 0.3333333333333333;
    ( 2.0, 9.0, 1.0, 1.0, 2.0, 2.0 ) 0.3333333333333333, 0.3333333333333333, 0.3333333333333333;
    ( 2.0, 9.0, 1.0, 1.0, 9.0, 1.0 ) 0.3333333333333333, 0.3333333333333333, 0.3333333333333333;
    ( 2.0, 9.0, 1.0, 1.0, 9.0, 2.0 ) 0.3333333333333333, 0.3333333333333333, 0.3333333333333333;
    ( 2.0, 9.0, 1.0, 1.0, 65.0, 1.0 ) 0.0004815563902532987, 0.9990368872194936, 0.0004815563902532987;
    ( 2.0, 9.0, 1.0, 1.0, 65.0, 2.0 ) 0.3333333333333333, 0.3333333333333333, 0.3333333333333333;
    ( 2.0, 9.0, 1.0, 2.0, 1.0, 1.0 ) 0.3333333333333333, 0.3333333333333333, 0.3333333333333333;
    ( 2.0, 9.0, 1.0, 2.0, 1.0, 2.0 ) 0.3333333333333333, 0.3333333333333333, 0.3333333333333333;
    ( 2.0, 9.0, 1.0, 2.0, 2.0, 1.0 ) 0.3333333333333333, 0.3333333333333333, 0.3333333333333333;
    ( 2.0, 9.0, 1.0, 2.0, 2.0, 2.0 ) 0.3333333333333333, 0.3333333333333333, 0.3333333333333333;
    ( 2.0, 9.0, 1.0, 2.0, 9.0, 1.0 ) 0.3333333333333333, 0.3333333333333333, 0.3333333333333333;
    ( 2.0, 9.0, 1.0, 2.0, 9.0, 2.0 ) 0.9980765531833042, 0.0009617234083477589, 0.0009617234083477589;
    ( 2.0, 9.0, 1.0, 2.0, 65.0, 1.0 ) 0.08339360043713738, 0.9165260434244571, 8.035613840541277e-05;
    ( 2.0, 9.0, 1.0, 2.0, 65.0, 2.0 ) 0.00012051968086388504, 0.9997589606382721, 0.00012051968086388504;
    ( 2.0, 9.0, 1.0, 9.0, 1.0, 1.0 ) 0.3333333333333333, 0.3333333333333333, 0.3333333333333333;
    ( 2.0, 9.0, 1.0, 9.0, 1.0, 2.0 ) 0.3333333333333333, 0.3333333333333333, 0.3333333333333333;
    ( 2.0, 9.0, 1.0, 9.0, 2.0, 1.0 ) 0.3333333333333333, 0.3333333333333333, 0.3333333333333333;
    ( 2.0, 9.0, 1.0, 9.0, 2.0, 2.0 ) 0.3333333333333333, 0.3333333333333333, 0.3333333333333333;
    ( 2.0, 9.0, 1.0, 9.0, 9.0, 1.0 ) 0.3333333333333333, 0.3333333333333333, 0.3333333333333333;
    ( 2.0, 9.0, 1.0, 9.0, 9.0, 2.0 ) 0.3333333333333333, 0.3333333333333333, 0.3333333333333333;
    ( 2.0, 9.0, 1.0, 9.0, 65.0, 1.0 ) 0.0009617234083477589, 0.9980765531833042, 0.0009617234083477589;
    ( 2.0, 9.0, 1.0, 9.0, 65.0, 2.0 ) 0.3333333333333333, 0.3333333333333333, 0.3333333333333333;
    ( 2.0, 9.0, 2.0, 1.0, 1.0, 1.0 ) 0.3333333333333333, 0.3333333333333333, 0.3333333333333333;
    ( 2.0, 9.0, 2.0, 1.0, 1.0, 2.0 ) 0.3333333333333333, 0.3333333333333333, 0.3333333333333333;
    ( 2.0, 9.0, 2.0, 1.0, 2.0, 1.0 ) 0.3333333333333333, 0.3333333333333333, 0.3333333333333333;
    ( 2.0, 9.0, 2.0, 1.0, 2.0, 2.0 ) 0.3333333333333333, 0.3333333333333333, 0.3333333333333333;
    ( 2.0, 9.0, 2.0, 1.0, 9.0, 1.0 ) 0.3333333333333333, 0.3333333333333333, 0.3333333333333333;
    ( 2.0, 9.0, 2.0, 1.0, 9.0, 2.0 ) 0.3333333333333333, 0.3333333333333333, 0.3333333333333333;
    ( 2.0, 9.0, 2.0, 1.0, 65.0, 1.0 ) 0.0009617234083477589, 0.9980765531833042, 0.0009617234083477589;
    ( 2.0, 9.0, 2.0, 1.0, 65.0, 2.0 ) 0.9980765531833042, 0.0009617234083477589, 0.0009617234083477589;
    ( 2.0, 9.0, 2.0, 2.0, 1.0, 1.0 ) 0.3333333333333333, 0.3333333333333333, 0.3333333333333333;
    ( 2.0, 9.0, 2.0, 2.0, 1.0, 2.0 ) 0.3333333333333333, 0.3333333333333333, 0.3333333333333333;
    ( 2.0, 9.0, 2.0, 2.0, 2.0, 1.0 ) 0.3333333333333333, 0.3333333333333333, 0.3333333333333333;
    ( 2.0, 9.0, 2.0, 2.0, 2.0, 2.0 ) 0.3333333333333333, 0.3333333333333333, 0.3333333333333333;
    ( 2.0, 9.0, 2.0, 2.0, 9.0, 1.0 ) 0.3333333333333333, 0.3333333333333333, 0.3333333333333333;
    ( 2.0, 9.0, 2.0, 2.0, 9.0, 2.0 ) 0.3333333333333333, 0.3333333333333333, 0.3333333333333333;
    ( 2.0, 9.0, 2.0, 2.0, 65.0, 1.0 ) 0.0009617234083477589, 0.9980765531833042, 0.0009617234083477589;
    ( 2.0, 9.0, 2.0, 2.0, 65.0, 2.0 ) 0.3333333333333333, 0.3333333333333333, 0.3333333333333333;
    ( 2.0, 9.0, 2.0, 9.0, 1.0, 1.0 ) 0.3333333333333333, 0.3333333333333333, 0.3333333333333333;
    ( 2.0, 9.0, 2.0, 9.0, 1.0, 2.0 ) 0.3333333333333333, 0.3333333333333333, 0.3333333333333333;
    ( 2.0, 9.0, 2.0, 9.0, 2.0, 1.0 ) 0.3333333333333333, 0.3333333333333333, 0.3333333333333333;
    ( 2.0, 9.0, 2.0, 9.0, 2.0, 2.0 ) 0.3333333333333333, 0.3333333333333333, 0.3333333333333333;
    ( 2.0, 9.0, 2.0, 9.0, 9.0, 1.0 ) 0.3333333333333333, 0.3333333333333333, 0.3333333333333333;
    ( 2.0, 9.0, 2.0, 9.0, 9.0, 2.0 ) 0.3333333333333333, 0.3333333333333333, 0.3333333333333333;
    ( 2.0, 9.0, 2.0, 9.0, 65.0, 1.0 ) 0.3333333333333333, 0.3333333333333333, 0.3333333333333333;
    ( 2.0, 9.0, 2.0, 9.0, 65.0, 2.0 ) 0.3333333333333333, 0.3333333333333333, 0.3333333333333333;
    ( 2.0, 9.0, 9.0, 1.0, 1.0, 1.0 ) 0.3333333333333333, 0.3333333333333333, 0.3333333333333333;
    ( 2.0, 9.0, 9.0, 1.0, 1.0, 2.0 ) 0.3333333333333333, 0.3333333333333333, 0.3333333333333333;
    ( 2.0, 9.0, 9.0, 1.0, 2.0, 1.0 ) 0.3333333333333333, 0.3333333333333333, 0.3333333333333333;
    ( 2.0, 9.0, 9.0, 1.0, 2.0, 2.0 ) 0.3333333333333333, 0.3333333333333333, 0.3333333333333333;
    ( 2.0, 9.0, 9.0, 1.0, 9.0, 1.0 ) 0.3333333333333333, 0.3333333333333333, 0.3333333333333333;
    ( 2.0, 9.0, 9.0, 1.0, 9.0, 2.0 ) 0.3333333333333333, 0.3333333333333333, 0.3333333333333333;
    ( 2.0, 9.0, 9.0, 1.0, 65.0, 1.0 ) 0.3333333333333333, 0.3333333333333333, 0.3333333333333333;
    ( 2.0, 9.0, 9.0, 1.0, 65.0, 2.0 ) 0.3333333333333333, 0.3333333333333333, 0.3333333333333333;
    ( 2.0, 9.0, 9.0, 2.0, 1.0, 1.0 ) 0.3333333333333333, 0.3333333333333333, 0.3333333333333333;
    ( 2.0, 9.0, 9.0, 2.0, 1.0, 2.0 ) 0.3333333333333333, 0.3333333333333333, 0.3333333333333333;
    ( 2.0, 9.0, 9.0, 2.0, 2.0, 1.0 ) 0.3333333333333333, 0.3333333333333333, 0.3333333333333333;
    ( 2.0, 9.0, 9.0, 2.0, 2.0, 2.0 ) 0.3333333333333333, 0.3333333333333333, 0.3333333333333333;
    ( 2.0, 9.0, 9.0, 2.0, 9.0, 1.0 ) 0.3333333333333333, 0.3333333333333333, 0.3333333333333333;
    ( 2.0, 9.0, 9.0, 2.0, 9.0, 2.0 ) 0.3333333333333333, 0.3333333333333333, 0.3333333333333333;
    ( 2.0, 9.0, 9.0, 2.0, 65.0, 1.0 ) 0.3333333333333333, 0.3333333333333333, 0.3333333333333333;
    ( 2.0, 9.0, 9.0, 2.0, 65.0, 2.0 ) 0.3333333333333333, 0.3333333333333333, 0.3333333333333333;
    ( 2.0, 9.0, 9.0, 9.0, 1.0, 1.0 ) 0.3333333333333333, 0.3333333333333333, 0.3333333333333333;
    ( 2.0, 9.0, 9.0, 9.0, 1.0, 2.0 ) 0.3333333333333333, 0.3333333333333333, 0.3333333333333333;
    ( 2.0, 9.0, 9.0, 9.0, 2.0, 1.0 ) 0.3333333333333333, 0.3333333333333333, 0.3333333333333333;
    ( 2.0, 9.0, 9.0, 9.0, 2.0, 2.0 ) 0.3333333333333333, 0.3333333333333333, 0.3333333333333333;
    ( 2.0, 9.0, 9.0, 9.0, 9.0, 1.0 ) 0.3333333333333333, 0.3333333333333333, 0.3333333333333333;
    ( 2.0, 9.0, 9.0, 9.0, 9.0, 2.0 ) 0.3333333333333333, 0.3333333333333333, 0.3333333333333333;
    ( 2.0, 9.0, 9.0, 9.0, 65.0, 1.0 ) 0.3333333333333333, 0.3333333333333333, 0.3333333333333333;
    ( 2.0, 9.0, 9.0, 9.0, 65.0, 2.0 ) 0.3333333333333333, 0.3333333333333333, 0.3333333333333333;
    ( 3.0, 1.0, 1.0, 1.0, 1.0, 1.0 ) 0.3333333333333333, 0.3333333333333333, 0.3333333333333333;
    ( 3.0, 1.0, 1.0, 1.0, 1.0, 2.0 ) 0.3333333333333333, 0.3333333333333333, 0.3333333333333333;
    ( 3.0, 1.0, 1.0, 1.0, 2.0, 1.0 ) 0.3333333333333333, 0.3333333333333333, 0.3333333333333333;
    ( 3.0, 1.0, 1.0, 1.0, 2.0, 2.0 ) 0.3333333333333333, 0.3333333333333333, 0.3333333333333333;
    ( 3.0, 1.0, 1.0, 1.0, 9.0, 1.0 ) 0.0004815563902532987, 0.9990368872194936, 0.0004815563902532987;
    ( 3.0, 1.0, 1.0, 1.0, 9.0, 2.0 ) 0.3333333333333334, 0.6663454744009765, 0.0003211922656902422;
    ( 3.0, 1.0, 1.0, 1.0, 65.0, 1.0 ) 0.28469775930237384, 0.6992863720784794, 0.01601586861914662;
    ( 3.0, 1.0, 1.0, 1.0, 65.0, 2.0 ) 0.34657528997829207, 0.6493138160337285, 0.004110893987979394;
    ( 3.0, 1.0, 1.0, 2.0, 1.0, 1.0 ) 0.3333333333333333, 0.3333333333333333, 0.3333333333333333;
    ( 3.0, 1.0, 1.0, 2.0, 1.0, 2.0 ) 0.3333333333333333, 0.3333333333333333, 0.3333333333333333;
    ( 3.0, 1.0, 1.0, 2.0, 2.0, 1.0 ) 0.3333333333333333, 0.3333333333333333, 0.3333333333333333;
    ( 3.0, 1.0, 1.0, 2.0, 2.0, 2.0 ) 0.3333333333333333, 0.3333333333333333, 0.3333333333333333;
    ( 3.0, 1.0, 1.0, 2.0, 9.0, 1.0 ) 0.3333333333333333, 0.6665059931231724, 0.00016067354349432822;
    ( 3.0, 1.0, 1.0, 2.0, 9.0, 2.0 ) 0.12507532480053993, 0.8748041555185961, 0.00012051968086388506;
    ( 3.0, 1.0, 1.0, 2.0, 65.0, 1.0 ) 0.17073211715124578, 0.8231694970818721, 0.006098385766882135;
    ( 3.0, 1.0, 1.0, 2.0, 65.0, 2.0 ) 0.21100928255257073, 0.7831800300795879, 0.005810687367841387;
    ( 3.0, 1.0, 1.0, 9.0, 1.0, 1.0 ) 0.3333333333333333, 0.3333333333333333, 0.3333333333333333;
    ( 3.0, 1.0, 1.0, 9.0, 1.0, 2.0 ) 0.3333333333333333, 0.3333333333333333, 0.3333333333333333;
    ( 3.0, 1.0, 1.0, 9.0, 2.0, 1.0 ) 0.3333333333333333, 0.3333333333333333, 0.3333333333333333;
    ( 3.0, 1.0, 1.0, 9.0, 2.0, 2.0 ) 0.3333333333333333, 0.3333333333333333, 0.3333333333333333;
    ( 3.0, 1.0, 1.0, 9.0, 9.0, 1.0 ) 0.3333333333333333, 0.3333333333333333, 0.3333333333333333;
    ( 3.0, 1.0, 1.0, 9.0, 9.0, 2.0 ) 0.3333333333333333, 0.3333333333333333, 0.3333333333333333;
    ( 3.0, 1.0, 1.0, 9.0, 65.0, 1.0 ) 0.0004815563902532987, 0.9990368872194936, 0.0004815563902532987;
    ( 3.0, 1.0, 1.0, 9.0, 65.0, 2.0 ) 0.49975922180487337, 0.49975922180487337, 0.0004815563902532986;
    ( 3.0, 1.0, 2.0, 1.0, 1.0, 1.0 ) 0.3333333333333333, 0.3333333333333333, 0.3333333333333333;
    ( 3.0, 1.0, 2.0, 1.0, 1.0, 2.0 ) 0.3333333333333333, 0.3333333333333333, 0.3333333333333333;
    ( 3.0, 1.0, 2.0, 1.0, 2.0, 1.0 ) 0.3333333333333333, 0.3333333333333333, 0.3333333333333333;
    ( 3.0, 1.0, 2.0, 1.0, 2.0, 2.0 ) 0.3333333333333333, 0.3333333333333333, 0.3333333333333333;
    ( 3.0, 1.0, 2.0, 1.0, 9.0, 1.0 ) 0.3333333333333333, 0.4999196632282528, 0.16674700343841387;
    ( 3.0, 1.0, 2.0, 1.0, 9.0, 2.0 ) 0.9993576154686196, 0.0003211922656902422, 0.0003211922656902422;
    ( 3.0, 1.0, 2.0, 1.0, 65.0, 1.0 ) 0.5286443616247989, 0.46093653848375743, 0.010419099891443639;
    ( 3.0, 1.0, 2.0, 1.0, 65.0, 2.0 ) 0.5782403746005078, 0.40387450951982173, 0.017885115879670396;
    ( 3.0, 1.0, 2.0, 2.0, 1.0, 1.0 ) 0.3333333333333333, 0.3333333333333333, 0.3333333333333333;
    ( 3.0, 1.0, 2.0, 2.0, 1.0, 2.0 ) 0.3333333333333333, 0.3333333333333333, 0.3333333333333333;
    ( 3.0, 1.0, 2.0, 2.0, 2.0, 1.0 ) 0.3333333333333333, 0.3333333333333333, 0.3333333333333333;
    ( 3.0, 1.0, 2.0, 2.0, 2.0, 2.0 ) 0.3333333333333333, 0.3333333333333333, 0.3333333333333333;
    ( 3.0, 1.0, 2.0, 2.0, 9.0, 1.0 ) 0.0009617234083477589, 0.9980765531833042, 0.0009617234083477589;
    ( 3.0, 1.0, 2.0, 2.0, 9.0, 2.0 ) 0.9980765531833042, 0.0009617234083477589, 0.0009617234083477589;
    ( 3.0, 1.0, 2.0, 2.0, 65.0, 1.0 ) 0.40112938935270176, 0.5819188720710176, 0.016951738576280642;
    ( 3.0, 1.0, 2.0, 2.0, 65.0, 2.0 ) 0.5196500664727973, 0.46615678566908403, 0.014193147858118642;
    ( 3.0, 1.0, 2.0, 9.0, 1.0, 1.0 ) 0.3333333333333333, 0.3333333333333333, 0.3333333333333333;
    ( 3.0, 1.0, 2.0, 9.0, 1.0, 2.0 ) 0.3333333333333333, 0.3333333333333333, 0.3333333333333333;
    ( 3.0, 1.0, 2.0, 9.0, 2.0, 1.0 ) 0.3333333333333333, 0.3333333333333333, 0.3333333333333333;
    ( 3.0, 1.0, 2.0, 9.0, 2.0, 2.0 ) 0.3333333333333333, 0.3333333333333333, 0.3333333333333333;
    ( 3.0, 1.0, 2.0, 9.0, 9.0, 1.0 ) 0.3333333333333333, 0.3333333333333333, 0.3333333333333333;
    ( 3.0, 1.0, 2.0, 9.0, 9.0, 2.0 ) 0.3333333333333333, 0.3333333333333333, 0.3333333333333333;
    ( 3.0, 1.0, 2.0, 9.0, 65.0, 1.0 ) 0.3333333333333333, 0.6665059931231724, 0.00016067354349432822;
    ( 3.0, 1.0, 2.0, 9.0, 65.0, 2.0 ) 0.9993576154686196, 0.0003211922656902422, 0.0003211922656902422;
    ( 3.0, 1.0, 9.0, 1.0, 1.0, 1.0 ) 0.3333333333333333, 0.3333333333333333, 0.3333333333333333;
    ( 3.0, 1.0, 9.0, 1.0, 1.0, 2.0 ) 0.3333333333333333, 0.3333333333333333, 0.3333333333333333;
    ( 3.0, 1.0, 9.0, 1.0, 2.0, 1.0 ) 0.3333333333333333, 0.3333333333333333, 0.3333333333333333;
    ( 3.0, 1.0, 9.0, 1.0, 2.0, 2.0 ) 0.3333333333333333, 0.3333333333333333, 0.3333333333333333;
    ( 3.0, 1.0, 9.0, 1.0, 9.0, 1.0 ) 0.3333333333333333, 0.3333333333333333, 0.3333333333333333;
    ( 3.0, 1.0, 9.0, 1.0, 9.0, 2.0 ) 0.3333333333333333, 0.3333333333333333, 0.3333333333333333;
    ( 3.0, 1.0, 9.0, 1.0, 65.0, 1.0 ) 0.0009617234083477589, 0.9980765531833042, 0.0009617234083477589;
    ( 3.0, 1.0, 9.0, 1.0, 65.0, 2.0 ) 0.7496988096959183, 0.2500602380608164, 0.0002409522432653848;
    ( 3.0, 1.0, 9.0, 2.0, 1.0, 1.0 ) 0.3333333333333333, 0.3333333333333333, 0.3333333333333333;
    ( 3.0, 1.0, 9.0, 2.0, 1.0, 2.0 ) 0.3333333333333333, 0.3333333333333333, 0.3333333333333333;
    ( 3.0, 1.0, 9.0, 2.0, 2.0, 1.0 ) 0.3333333333333333, 0.3333333333333333, 0.3333333333333333;
    ( 3.0, 1.0, 9.0, 2.0, 2.0, 2.0 ) 0.3333333333333333, 0.3333333333333333, 0.3333333333333333;
    ( 3.0, 1.0, 9.0, 2.0, 9.0, 1.0 ) 0.3333333333333333, 0.3333333333333333, 0.3333333333333333;
    ( 3.0, 1.0, 9.0, 2.0, 9.0, 2.0 ) 0.9980765531833042, 0.0009617234083477589, 0.0009617234083477589;
    ( 3.0, 1.0, 9.0, 2.0, 65.0, 1.0 ) 0.9993576154686196, 0.0003211922656902422, 0.0003211922656902422;
    ( 3.0, 1.0, 9.0, 2.0, 65.0, 2.0 ) 0.4998795238783673, 0.4998795238783673, 0.0002409522432653848;
    ( 3.0, 1.0, 9.0, 9.0, 1.0, 1.0 ) 0.3333333333333333, 0.3333333333333333, 0.3333333333333333;
    ( 3.0, 1.0, 9.0, 9.0, 1.0, 2.0 ) 0.3333333333333333, 0.3333333333333333, 0.3333333333333333;
    ( 3.0, 1.0, 9.0, 9.0, 2.0, 1.0 ) 0.3333333333333333, 0.3333333333333333, 0.3333333333333333;
    ( 3.0, 1.0, 9.0, 9.0, 2.0, 2.0 ) 0.3333333333333333, 0.3333333333333333, 0.3333333333333333;
    ( 3.0, 1.0, 9.0, 9.0, 9.0, 1.0 ) 0.3333333333333333, 0.3333333333333333, 0.3333333333333333;
    ( 3.0, 1.0, 9.0, 9.0, 9.0, 2.0 ) 0.3333333333333333, 0.3333333333333333, 0.3333333333333333;
    ( 3.0, 1.0, 9.0, 9.0, 65.0, 1.0 ) 0.3333333333333333, 0.3333333333333333, 0.3333333333333333;
    ( 3.0, 1.0, 9.0, 9.0, 65.0, 2.0 ) 0.3333333333333333, 0.3333333333333333, 0.3333333333333333;
    ( 3.0, 2.0, 1.0, 1.0, 1.0, 1.0 ) 0.3333333333333333, 0.3333333333333333, 0.3333333333333333;
    ( 3.0, 2.0, 1.0, 1.0, 1.0, 2.0 ) 0.3333333333333333, 0.3333333333333333, 0.3333333333333333;
    ( 3.0, 2.0, 1.0, 1.0, 2.0, 1.0 ) 0.3333333333333333, 0.3333333333333333, 0.3333333333333333;
    ( 3.0, 2.0, 1.0, 1.0, 2.0, 2.0 ) 0.3333333333333333, 0.3333333333333333, 0.3333333333333333;
    ( 3.0, 2.0, 1.0, 1.0, 9.0, 1.0 ) 0.14288338430735037, 0.8094582058982909, 0.04765840979435889;
    ( 3.0, 2.0, 1.0, 1.0, 9.0, 2.0 ) 0.36363237859779246, 0.5908752180812358, 0.04549240332097175;
    ( 3.0, 2.0, 1.0, 1.0, 65.0, 1.0 ) 0.14040748775795175, 0.8578058172308523, 0.0017866950111960478;
    ( 3.0, 2.0, 1.0, 1.0, 65.0, 2.0 ) 0.1393537130900911, 0.8567438603689784, 0.0039024265409305335;
    ( 3.0, 2.0, 1.0, 2.0, 1.0, 1.0 ) 0.3333333333333333, 0.3333333333333333, 0.3333333333333333;
    ( 3.0, 2.0, 1.0, 2.0, 1.0, 2.0 ) 0.3333333333333333, 0.3333333333333333, 0.3333333333333333;
    ( 3.0, 2.0, 1.0, 2.0, 2.0, 1.0 ) 0.3333333333333333, 0.3333333333333333, 0.3333333333333333;
    ( 3.0, 2.0, 1.0, 2.0, 2.0, 2.0 ) 0.3333333333333333, 0.3333333333333333, 0.3333333333333333;
    ( 3.0, 2.0, 1.0, 2.0, 9.0, 1.0 ) 0.04939285909901672, 0.9382499958325297, 0.012357145068453682;
    ( 3.0, 2.0, 1.0, 2.0, 9.0, 2.0 ) 0.1081169144307942, 0.8783570670774782, 0.013526018491727732;
    ( 3.0, 2.0, 1.0, 2.0, 65.0, 1.0 ) 0.07566598154088072, 0.9209930744555898, 0.003340944003529526;
    ( 3.0, 2.0, 1.0, 2.0, 65.0, 2.0 ) 0.07796615614662168, 0.9195282464137188, 0.002505597439659562;
    ( 3.0, 2.0, 1.0, 9.0, 1.0, 1.0 ) 0.3333333333333333, 0.3333333333333333, 0.3333333333333333;
    ( 3.0, 2.0, 1.0, 9.0, 1.0, 2.0 ) 0.3333333333333333, 0.3333333333333333, 0.3333333333333333;
    ( 3.0, 2.0, 1.0, 9.0, 2.0, 1.0 ) 0.3333333333333333, 0.3333333333333333, 0.3333333333333333;
    ( 3.0, 2.0, 1.0, 9.0, 2.0, 2.0 ) 0.3333333333333333, 0.3333333333333333, 0.3333333333333333;
    ( 3.0, 2.0, 1.0, 9.0, 9.0, 1.0 ) 0.0002409522432653848, 0.9995180955134693, 0.0002409522432653848;
    ( 3.0, 2.0, 1.0, 9.0, 9.0, 2.0 ) 0.9980765531833042, 0.0009617234083477589, 0.0009617234083477589;
    ( 3.0, 2.0, 1.0, 9.0, 65.0, 1.0 ) 0.08336347051779702, 0.8749347027669955, 0.041701826715207634;
    ( 3.0, 2.0, 1.0, 9.0, 65.0, 2.0 ) 8.035613840541277e-05, 0.9998392877231891, 8.035613840541277e-05;
    ( 3.0, 2.0, 2.0, 1.0, 1.0, 1.0 ) 0.3333333333333333, 0.3333333333333333, 0.3333333333333333;
    ( 3.0, 2.0, 2.0, 1.0, 1.0, 2.0 ) 0.3333333333333333, 0.3333333333333333, 0.3333333333333333;
    ( 3.0, 2.0, 2.0, 1.0, 2.0, 1.0 ) 0.3333333333333333, 0.3333333333333333, 0.3333333333333333;
    ( 3.0, 2.0, 2.0, 1.0, 2.0, 2.0 ) 0.3333333333333333, 0.3333333333333333, 0.3333333333333333;
    ( 3.0, 2.0, 2.0, 1.0, 9.0, 1.0 ) 0.4999196632282528, 0.4999196632282528, 0.00016067354349432822;
    ( 3.0, 2.0, 2.0, 1.0, 9.0, 2.0 ) 0.9995180955134693, 0.0002409522432653848, 0.0002409522432653848;
    ( 3.0, 2.0, 2.0, 1.0, 65.0, 1.0 ) 0.2846156557028892, 0.7057671583765968, 0.009617185920514004;
    ( 3.0, 2.0, 2.0, 1.0, 65.0, 2.0 ) 0.3457556191633248, 0.648031241026452, 0.006213139810223064;
    ( 3.0, 2.0, 2.0, 2.0, 1.0, 1.0 ) 0.3333333333333333, 0.3333333333333333, 0.3333333333333333;
    ( 3.0, 2.0, 2.0, 2.0, 1.0, 2.0 ) 0.3333333333333333, 0.3333333333333333, 0.3333333333333333;
    ( 3.0, 2.0, 2.0, 2.0, 2.0, 1.0 ) 0.3333333333333333, 0.3333333333333333, 0.3333333333333333;
    ( 3.0, 2.0, 2.0, 2.0, 2.0, 2.0 ) 0.3333333333333333, 0.3333333333333333, 0.3333333333333333;
    ( 3.0, 2.0, 2.0, 2.0, 9.0, 1.0 ) 0.39996144206670525, 0.5998457682668209, 0.000192789666473877;
    ( 3.0, 2.0, 2.0, 2.0, 9.0, 2.0 ) 0.16674700343841387, 0.8330923230180919, 0.00016067354349432822;
    ( 3.0, 2.0, 2.0, 2.0, 65.0, 1.0 ) 0.1699723409179274, 0.8229441689829747, 0.007083490099097821;
    ( 3.0, 2.0, 2.0, 2.0, 65.0, 2.0 ) 0.24598418950438275, 0.7429706974966876, 0.011045112998929556;
    ( 3.0, 2.0, 2.0, 9.0, 1.0, 1.0 ) 0.3333333333333333, 0.3333333333333333, 0.3333333333333333;
    ( 3.0, 2.0, 2.0, 9.0, 1.0, 2.0 ) 0.3333333333333333, 0.3333333333333333, 0.3333333333333333;
    ( 3.0, 2.0, 2.0, 9.0, 2.0, 1.0 ) 0.3333333333333333, 0.3333333333333333, 0.3333333333333333;
    ( 3.0, 2.0, 2.0, 9.0, 2.0, 2.0 ) 0.3333333333333333, 0.3333333333333333, 0.3333333333333333;
    ( 3.0, 2.0, 2.0, 9.0, 9.0, 1.0 ) 0.0009617234083477589, 0.9980765531833042, 0.0009617234083477589;
    ( 3.0, 2.0, 2.0, 9.0, 9.0, 2.0 ) 0.3333333333333333, 0.3333333333333333, 0.3333333333333333;
    ( 3.0, 2.0, 2.0, 9.0, 65.0, 1.0 ) 0.000192789666473877, 0.9996144206670523, 0.000192789666473877;
    ( 3.0, 2.0, 2.0, 9.0, 65.0, 2.0 ) 0.28573396138060214, 0.7141283089551828, 0.00013772966421507865;
    ( 3.0, 2.0, 9.0, 1.0, 1.0, 1.0 ) 0.3333333333333333, 0.3333333333333333, 0.3333333333333333;
    ( 3.0, 2.0, 9.0, 1.0, 1.0, 2.0 ) 0.3333333333333333, 0.3333333333333333, 0.3333333333333333;
    ( 3.0, 2.0, 9.0, 1.0, 2.0, 1.0 ) 0.3333333333333333, 0.3333333333333333, 0.3333333333333333;
    ( 3.0, 2.0, 9.0, 1.0, 2.0, 2.0 ) 0.3333333333333333, 0.3333333333333333, 0.3333333333333333;
    ( 3.0, 2.0, 9.0, 1.0, 9.0, 1.0 ) 0.0009617234083477589, 0.9980765531833042, 0.0009617234083477589;
    ( 3.0, 2.0, 9.0, 1.0, 9.0, 2.0 ) 0.3333333333333333, 0.3333333333333333, 0.3333333333333333;
    ( 3.0, 2.0, 9.0, 1.0, 65.0, 1.0 ) 0.0009617234083477589, 0.9980765531833042, 0.0009617234083477589;
    ( 3.0, 2.0, 9.0, 1.0, 65.0, 2.0 ) 0.0003211922656902422, 0.9993576154686196, 0.0003211922656902422;
    ( 3.0, 2.0, 9.0, 2.0, 1.0, 1.0 ) 0.3333333333333333, 0.3333333333333333, 0.3333333333333333;
    ( 3.0, 2.0, 9.0, 2.0, 1.0, 2.0 ) 0.3333333333333333, 0.3333333333333333, 0.3333333333333333;
    ( 3.0, 2.0, 9.0, 2.0, 2.0, 1.0 ) 0.3333333333333333, 0.3333333333333333, 0.3333333333333333;
    ( 3.0, 2.0, 9.0, 2.0, 2.0, 2.0 ) 0.3333333333333333, 0.3333333333333333, 0.3333333333333333;
    ( 3.0, 2.0, 9.0, 2.0, 9.0, 1.0 ) 0.3333333333333333, 0.3333333333333333, 0.3333333333333333;
    ( 3.0, 2.0, 9.0, 2.0, 9.0, 2.0 ) 0.3333333333333333, 0.3333333333333333, 0.3333333333333333;
    ( 3.0, 2.0, 9.0, 2.0, 65.0, 1.0 ) 0.14288338430735037, 0.8570706931547866, 4.592253786313247e-05;
    ( 3.0, 2.0, 9.0, 2.0, 65.0, 2.0 ) 0.2222400805768963, 0.7777063443590815, 5.35750640222015e-05;
    ( 3.0, 2.0, 9.0, 9.0, 1.0, 1.0 ) 0.3333333333333333, 0.3333333333333333, 0.3333333333333333;
    ( 3.0, 2.0, 9.0, 9.0, 1.0, 2.0 ) 0.3333333333333333, 0.3333333333333333, 0.3333333333333333;
    ( 3.0, 2.0, 9.0, 9.0, 2.0, 1.0 ) 0.3333333333333333, 0.3333333333333333, 0.3333333333333333;
    ( 3.0, 2.0, 9.0, 9.0, 2.0, 2.0 ) 0.3333333333333333, 0.3333333333333333, 0.3333333333333333;
    ( 3.0, 2.0, 9.0, 9.0, 9.0, 1.0 ) 0.3333333333333333, 0.3333333333333333, 0.3333333333333333;
    ( 3.0, 2.0, 9.0, 9.0, 9.0, 2.0 ) 0.3333333333333333, 0.3333333333333333, 0.3333333333333333;
    ( 3.0, 2.0, 9.0, 9.0, 65.0, 1.0 ) 0.0004815563902532985, 0.49975922180487325, 0.49975922180487325;
    ( 3.0, 2.0, 9.0, 9.0, 65.0, 2.0 ) 0.3333333333333333, 0.3333333333333333, 0.3333333333333333;
    ( 3.0, 7.0, 1.0, 1.0, 1.0, 1.0 ) 0.3333333333333333, 0.3333333333333333, 0.3333333333333333;
    ( 3.0, 7.0, 1.0, 1.0, 1.0, 2.0 ) 0.3333333333333333, 0.3333333333333333, 0.3333333333333333;
    ( 3.0, 7.0, 1.0, 1.0, 2.0, 1.0 ) 0.3333333333333333, 0.3333333333333333, 0.3333333333333333;
    ( 3.0, 7.0, 1.0, 1.0, 2.0, 2.0 ) 0.3333333333333333, 0.3333333333333333, 0.3333333333333333;
    ( 3.0, 7.0, 1.0, 1.0, 9.0, 1.0 ) 0.9980765531833042, 0.0009617234083477589, 0.0009617234083477589;
    ( 3.0, 7.0, 1.0, 1.0, 9.0, 2.0 ) 0.3333333333333333, 0.3333333333333333, 0.3333333333333333;
    ( 3.0, 7.0, 1.0, 1.0, 65.0, 1.0 ) 0.22225793319191786, 0.7776349338989951, 0.00010713290908701334;
    ( 3.0, 7.0, 1.0, 1.0, 65.0, 2.0 ) 0.00013772966421507865, 0.8569264248133763, 0.14293584552240865;
