digraph Tree {
node [shape=box, style="filled, rounded", color="black", fontname="helvetica"] ;
edge [fontname="helvetica"] ;
0 [label="petal length (cm) <= 2.35\ngini = 0.66\nsamples = 86\nvalue = [47, 45, 58]\nclass = virginica", fillcolor="#f2eafc"] ;
1 [label="gini = 0.0\nsamples = 27\nvalue = [47, 0, 0]\nclass = setosa", fillcolor="#e58139"] ;
0 -> 1 [labeldistance=2.5, labelangle=45, headlabel="True"] ;
2 [label="petal width (cm) <= 1.65\ngini = 0.49\nsamples = 59\nvalue = [0, 45, 58]\nclass = virginica", fillcolor="#e3d3f9"] ;
0 -> 2 [labeldistance=2.5, labelangle=-45, headlabel="False"] ;
3 [label="petal length (cm) <= 4.9\ngini = 0.12\nsamples = 29\nvalue = [0, 43, 3]\nclass = versicolor", fillcolor="#47e78a"] ;
2 -> 3 ;
4 [label="gini = 0.0\nsamples = 27\nvalue = [0, 43, 0]\nclass = versicolor", fillcolor="#39e581"] ;
3 -> 4 ;
5 [label="gini = 0.0\nsamples = 2\nvalue = [0, 0, 3]\nclass = virginica", fillcolor="#8139e5"] ;
3 -> 5 ;
6 [label="petal length (cm) <= 4.85\ngini = 0.07\nsamples = 30\nvalue = [0, 2, 55]\nclass = virginica", fillcolor="#8640e6"] ;
2 -> 6 ;
7 [label="sepal length (cm) <= 5.4\ngini = 0.44\nsamples = 3\nvalue = [0, 2, 4]\nclass = virginica", fillcolor="#c09cf2"] ;
6 -> 7 ;
8 [label="gini = 0.0\nsamples = 1\nvalue = [0, 0, 3]\nclass = virginica", fillcolor="#8139e5"] ;
7 -> 8 ;
9 [label="sepal width (cm) <= 3.0\ngini = 0.44\nsamples = 2\nvalue = [0, 2, 1]\nclass = versicolor", fillcolor="#9cf2c0"] ;
7 -> 9 ;
10 [label="gini = 0.0\nsamples = 1\nvalue = [0, 0, 1]\nclass = virginica", fillcolor="#8139e5"] ;
9 -> 10 ;
11 [label="gini = 0.0\nsamples = 1\nvalue = [0, 2, 0]\nclass = versicolor", fillcolor="#39e581"] ;
9 -> 11 ;
12 [label="gini = 0.0\nsamples = 27\nvalue = [0, 0, 51]\nclass = virginica", fillcolor="#8139e5"] ;
6 -> 12 ;
}